{"learner":{"attributes":{"scikit_learn":"{\"_estimator_type\": \"regressor\"}"},"feature_names":["league_weight","is_knockout","is_derby","rank_diff","points_gap","home_form","away_form","is_relegation_battle","is_title_race","is_late_season"],"feature_types":["float","int","int","int","int","int","int","int","int","int"],"gradient_booster":{"model":{"cats":{"enc":[],"feature_segments":[],"sorted_idx":[]},"gbtree_model_param":{"num_parallel_tree":"1","num_trees":"300"},"iteration_indptr":[0,1,2,3,4,5,6,7,8,9,10,11,12,13,14,15,16,17,18,19,20,21,22,23,24,25,26,27,28,29,30,31,32,33,34,35,36,37,38,39,40,41,42,43,44,45,46,47,48,49,50,51,52,53,54,55,56,57,58,59,60,61,62,63,64,65,66,67,68,69,70,71,72,73,74,75,76,77,78,79,80,81,82,83,84,85,86,87,88,89,90,91,92,93,94,95,96,97,98,99,100,101,102,103,104,105,106,107,108,109,110,111,112,113,114,115,116,117,118,119,120,121,122,123,124,125,126,127,128,129,130,131,132,133,134,135,136,137,138,139,140,141,142,143,144,145,146,147,148,149,150,151,152,153,154,155,156,157,158,159,160,161,162,163,164,165,166,167,168,169,170,171,172,173,174,175,176,177,178,179,180,181,182,183,184,185,186,187,188,189,190,191,192,193,194,195,196,197,198,199,200,201,202,203,204,205,206,207,208,209,210,211,212,213,214,215,216,217,218,219,220,221,222,223,224,225,226,227,228,229,230,231,232,233,234,235,236,237,238,239,240,241,242,243,244,245,246,247,248,249,250,251,252,253,254,255,256,257,258,259,260,261,262,263,264,265,266,267,268,269,270,271,272,273,274,275,276,277,278,279,280,281,282,283,284,285,286,287,288,289,290,291,292,293,294,295,296,297,298,299,300],"tree_info":[0,0,0,0,0,0,0,0,0,0,0,0,0,0,0,0,0,0,0,0,0,0,0,0,0,0,0,0,0,0,0,0,0,0,0,0,0,0,0,0,0,0,0,0,0,0,0,0,0,0,0,0,0,0,0,0,0,0,0,0,0,0,0,0,0,0,0,0,0,0,0,0,0,0,0,0,0,0,0,0,0,0,0,0,0,0,0,0,0,0,0,0,0,0,0,0,0,0,0,0,0,0,0,0,0,0,0,0,0,0,0,0,0,0,0,0,0,0,0,0,0,0,0,0,0,0,0,0,0,0,0,0,0,0,0,0,0,0,0,0,0,0,0,0,0,0,0,0,0,0,0,0,0,0,0,0,0,0,0,0,0,0,0,0,0,0,0,0,0,0,0,0,0,0,0,0,0,0,0,0,0,0,0,0,0,0,0,0,0,0,0,0,0,0,0,0,0,0,0,0,0,0,0,0,0,0,0,0,0,0,0,0,0,0,0,0,0,0,0,0,0,0,0,0,0,0,0,0,0,0,0,0,0,0,0,0,0,0,0,0,0,0,0,0,0,0,0,0,0,0,0,0,0,0,0,0,0,0,0,0,0,0,0,0,0,0,0,0,0,0,0,0,0,0,0,0,0,0,0,0,0,0,0,0,0,0,0,0,0,0,0,0,0,0,0,0,0,0,0,0],"trees":[{"base_weights":[-4.523222E-7,-1.1874679E0,2.2604292E1,3.9906714E0,-5.325234E0,2.7987331E1,1.714619E1,1.3585262E-1,8.308894E-1,-3.1535384E-1,5.785354E-1,1.4971598E0,9.9115974E-1,7.6437855E-1,1.6678393E0],"categories":[],"categories_nodes":[],"categories_segments":[],"categories_sizes":[],"default_left":[0,0,0,0,0,0,0,0,0,0,0,0,0,0,0],"id":0,"left_children":[1,3,5,7,9,11,13,-1,-1,-1,-1,-1,-1,-1,-1],"loss_changes":[9.03497E4,6.8541375E4,4.4561562E3,2.2807566E4,2.9568492E4,7.3177344E2,2.0811777E3,0E0,0E0,0E0,0E0,0E0,0E0,0E0,0E0],"parents":[2147483647,0,0,1,1,2,2,3,3,4,4,5,5,6,6],"right_children":[2,4,6,8,10,12,14,-1,-1,-1,-1,-1,-1,-1,-1],"split_conditions":[1E0,9E0,9E0,1E0,1E0,1.2E1,1E0,1.3585262E-1,8.308894E-1,-3.1535384E-1,5.785354E-1,1.4971598E0,9.9115974E-1,7.6437855E-1,1.6678393E0],"split_indices":[8,4,4,1,2,3,2,0,0,0,0,0,0,0,0],"split_type":[0,0,0,0,0,0,0,0,0,0,0,0,0,0,0],"sum_hessian":[3.364E3,3.197E3,1.67E2,1.42E3,1.777E3,8.2E1,8.5E1,1.291E3,1.29E2,1.68E3,9.7E1,6.4E1,1.8E1,7.8E1,7E0],"tree_param":{"num_deleted":"0","num_feature":"10","num_nodes":"15","size_leaf_vector":"1"}},{"base_weights":[1.8270053E-3,-1.1277103E0,2.1503366E1,4.328278E0,-4.686484E0,2.6617945E1,1.6317163E1,1.5998885E-1,7.9485357E-1,-3.0025727E-1,3.4593806E-1,1.4234537E0,9.4421E-1,7.266435E-1,1.5948714E0],"categories":[],"categories_nodes":[],"categories_segments":[],"categories_sizes":[],"default_left":[0,0,0,0,0,0,0,0,0,0,0,0,0,0,0],"id":1,"left_children":[1,3,5,7,9,11,13,-1,-1,-1,-1,-1,-1,-1,-1],"loss_changes":[8.1749305E4,6.2114652E4,4.021914E3,1.6438096E4,2.9668902E4,6.506211E2,1.9272168E3,0E0,0E0,0E0,0E0,0E0,0E0,0E0,0E0],"parents":[2147483647,0,0,1,1,2,2,3,3,4,4,5,5,6,6],"right_children":[2,4,6,8,10,12,14,-1,-1,-1,-1,-1,-1,-1,-1],"split_conditions":[1E0,8E0,9E0,1E0,1E0,1.2E1,1E0,1.5998885E-1,7.9485357E-1,-3.0025727E-1,3.4593806E-1,1.4234537E0,9.4421E-1,7.266435E-1,1.5948714E0],"split_indices":[8,4,4,1,1,3,2,0,0,0,0,0,0,0,0],"split_type":[0,0,0,0,0,0,0,0,0,0,0,0,0,0,0],"sum_hessian":[3.364E3,3.197E3,1.67E2,1.262E3,1.935E3,8.2E1,8.5E1,1.151E3,1.11E2,1.738E3,1.97E2,6.4E1,1.8E1,7.8E1,7E0],"tree_param":{"num_deleted":"0","num_feature":"10","num_nodes":"15","size_leaf_vector":"1"}},{"base_weights":[3.4272913E-3,-1.0710112E0,2.045611E1,2.1111555E0,-6.7940764E0,2.5315575E1,1.55283E1,6.2199827E-2,9.3555015E-1,-1.1344635E-1,-5.173508E-1,1.3533758E0,8.994843E-1,6.907713E-1,1.5250958E0],"categories":[],"categories_nodes":[],"categories_segments":[],"categories_sizes":[],"default_left":[0,0,0,0,0,0,0,0,0,0,0,0,0,0,0],"id":2,"left_children":[1,3,5,7,9,11,13,-1,-1,-1,-1,-1,-1,-1,-1],"loss_changes":[7.396829E4,5.8255508E4,3.6299062E3,2.9572236E4,1.83532E4,5.783281E2,1.7843242E3,0E0,0E0,0E0,0E0,0E0,0E0,0E0,0E0],"parents":[2147483647,0,0,1,1,2,2,3,3,4,4,5,5,6,6],"right_children":[2,4,6,8,10,12,14,-1,-1,-1,-1,-1,-1,-1,-1],"split_conditions":[1E0,1.3E1,9E0,1E0,7E0,1.2E1,1E0,6.2199827E-2,9.3555015E-1,-1.1344635E-1,-5.173508E-1,1.3533758E0,8.994843E-1,6.907713E-1,1.5250958E0],"split_indices":[8,4,4,2,3,3,2,0,0,0,0,0,0,0,0],"split_type":[0,0,0,0,0,0,0,0,0,0,0,0,0,0,0],"sum_hessian":[3.364E3,3.197E3,1.67E2,2.055E3,1.142E3,8.2E1,8.5E1,1.954E3,1.01E2,5.03E2,6.39E2,6.4E1,1.8E1,7.8E1,7E0],"tree_param":{"num_deleted":"0","num_feature":"10","num_nodes":"15","size_leaf_vector":"1"}},{"base_weights":[4.6931915E-3,-1.0173457E0,1.9459904E1,4.011748E0,-4.29768E0,2.2643282E1,1.2688806E1,1.4691804E-1,7.5082403E-1,-2.600568E-1,5.8335227E-1,1.0794908E0,1.6885651E0,5.23998E-1,1.4674591E0],"categories":[],"categories_nodes":[],"categories_segments":[],"categories_sizes":[],"default_left":[0,0,0,0,0,0,0,0,0,0,0,0,0,0,0],"id":3,"left_children":[1,3,5,7,9,11,13,-1,-1,-1,-1,-1,-1,-1,-1],"loss_changes":[6.692939E4,5.2774992E4,3.333918E3,1.4874857E4,2.7984422E4,5.955781E2,1.7532314E3,0E0,0E0,0E0,0E0,0E0,0E0,0E0,0E0],"parents":[2147483647,0,0,1,1,2,2,3,3,4,4,5,5,6,6],"right_children":[2,4,6,8,10,12,14,-1,-1,-1,-1,-1,-1,-1,-1],"split_conditions":[1E0,8E0,1.4E1,1E0,1E0,1E0,1E0,1.4691804E-1,7.5082403E-1,-2.600568E-1,5.8335227E-1,1.0794908E0,1.6885651E0,5.23998E-1,1.4674591E0],"split_indices":[8,4,4,1,2,2,2,0,0,0,0,0,0,0,0],"split_type":[0,0,0,0,0,0,0,0,0,0,0,0,0,0,0],"sum_hessian":[3.364E3,3.197E3,1.67E2,1.262E3,1.935E3,1.12E2,5.5E1,1.151E3,1.11E2,1.832E3,1.03E2,1.05E2,7E0,5E1,5E0],"tree_param":{"num_deleted":"0","num_feature":"10","num_nodes":"15","size_leaf_vector":"1"}},{"base_weights":[6.234761E-3,-9.660976E-1,1.851524E1,1.965143E0,-6.237895E0,2.2973763E1,1.3996951E1,5.7882257E-2,8.711459E-1,-3.8199162E-1,2.4206035E-1,1.2312615E0,8.057434E-1,6.209573E-1,1.3914076E0],"categories":[],"categories_nodes":[],"categories_segments":[],"categories_sizes":[],"default_left":[0,0,0,0,0,0,0,0,0,0,0,0,0,0,0],"id":4,"left_children":[1,3,5,7,9,11,13,-1,-1,-1,-1,-1,-1,-1,-1],"loss_changes":[6.057747E4,4.9430656E4,3.0627852E3,2.5643068E4,1.77903E4,5.433281E2,1.5311699E3,0E0,0E0,0E0,0E0,0E0,0E0,0E0,0E0],"parents":[2147483647,0,0,1,1,2,2,3,3,4,4,5,5,6,6],"right_children":[2,4,6,8,10,12,14,-1,-1,-1,-1,-1,-1,-1,-1],"split_conditions":[1E0,1.3E1,9E0,1E0,1E0,1.2E1,1E0,5.7882257E-2,8.711459E-1,-3.8199162E-1,2.4206035E-1,1.2312615E0,8.057434E-1,6.209573E-1,1.3914076E0],"split_indices":[8,4,4,2,1,3,2,0,0,0,0,0,0,0,0],"split_type":[0,0,0,0,0,0,0,0,0,0,0,0,0,0,0],"sum_hessian":[3.364E3,3.197E3,1.67E2,2.055E3,1.142E3,8.2E1,8.5E1,1.954E3,1.01E2,1.014E3,1.28E2,6.4E1,1.8E1,7.8E1,7E0],"tree_param":{"num_deleted":"0","num_feature":"10","num_nodes":"15","size_leaf_vector":"1"}},{"base_weights":[7.362117E-3,-9.175447E-1,1.761358E1,3.2794561E0,-4.2713246E0,1.9936546E1,9.681674E0,1.0854731E-1,7.135557E-1,-1.5622831E-2,-3.776884E-1,9.428491E-1,1.6117764E0,3.6968702E-1,1.2109233E0],"categories":[],"categories_nodes":[],"categories_segments":[],"categories_sizes":[],"default_left":[0,0,0,0,0,0,0,0,0,0,0,0,0,0,0],"id":5,"left_children":[1,3,5,7,9,11,13,-1,-1,-1,-1,-1,-1,-1,-1],"loss_changes":[5.48122E4,4.5028473E4,2.9024688E3,1.7282996E4,2.3102322E4,1.1049375E3,1.1513037E3,0E0,0E0,0E0,0E0,0E0,0E0,0E0,0E0],"parents":[2147483647,0,0,1,1,2,2,3,3,4,4,5,5,6,6],"right_children":[2,4,6,8,10,12,14,-1,-1,-1,-1,-1,-1,-1,-1],"split_conditions":[1E0,9E0,1.6E1,1E0,7E0,1E0,1E0,1.0854731E-1,7.135557E-1,-1.5622831E-2,-3.776884E-1,9.428491E-1,1.6117764E0,3.6968702E-1,1.2109233E0],"split_indices":[8,4,4,1,3,2,2,0,0,0,0,0,0,0,0],"split_type":[0,0,0,0,0,0,0,0,0,0,0,0,0,0,0],"sum_hessian":[3.364E3,3.197E3,1.67E2,1.42E3,1.777E3,1.28E2,3.9E1,1.291E3,1.29E2,8.06E2,9.71E2,1.2E2,8E0,3.5E1,4E0],"tree_param":{"num_deleted":"0","num_feature":"10","num_nodes":"15","size_leaf_vector":"1"}},{"base_weights":[8.35034E-3,-8.7153345E-1,1.6757517E1,1.2344273E0,-7.0920215E0,2.087783E1,1.258608E1,7.4517983E-3,5.890519E-1,-5.8989525E-1,-2.1768692E-1,1.1216556E0,7.2291535E-1,5.530715E-1,1.3034365E0],"categories":[],"categories_nodes":[],"categories_segments":[],"categories_sizes":[],"default_left":[0,0,0,0,0,0,0,0,0,0,0,0,0,0,0],"id":6,"left_children":[1,3,5,7,9,11,13,-1,-1,-1,-1,-1,-1,-1,-1],"loss_changes":[4.9605688E4,4.1902887E4,2.62475E3,2.735705E4,1.0373441E4,5.0433984E2,1.4794854E3,0E0,0E0,0E0,0E0,0E0,0E0,0E0,0E0],"parents":[2147483647,0,0,1,1,2,2,3,3,4,4,5,5,6,6],"right_children":[2,4,6,8,10,12,14,-1,-1,-1,-1,-1,-1,-1,-1],"split_conditions":[1E0,1.5E1,9E0,1E0,7E0,1.2E1,1E0,7.4517983E-3,5.890519E-1,-5.8989525E-1,-2.1768692E-1,1.1216556E0,7.2291535E-1,5.530715E-1,1.3034365E0],"split_indices":[8,4,4,1,5,3,1,0,0,0,0,0,0,0,0],"split_type":[0,0,0,0,0,0,0,0,0,0,0,0,0,0,0],"sum_hessian":[3.364E3,3.197E3,1.67E2,2.389E3,8.08E2,8.2E1,8.5E1,2.167E3,2.22E2,2.96E2,5.12E2,6.4E1,1.8E1,7.8E1,7E0],"tree_param":{"num_deleted":"0","num_feature":"10","num_nodes":"15","size_leaf_vector":"1"}},{"base_weights":[8.971064E-3,-8.2802165E-1,1.5941672E1,3.4977844E0,-3.6496463E0,1.8075869E1,8.660345E0,3.437799E-2,3.6789548E-1,-2.2449079E-1,5.5967176E-1,8.5199547E-1,1.499767E0,3.237886E-1,1.1328601E0],"categories":[],"categories_nodes":[],"categories_segments":[],"categories_sizes":[],"default_left":[0,0,0,0,0,0,0,0,0,0,0,0,0,0,0],"id":7,"left_children":[1,3,5,7,9,11,13,-1,-1,-1,-1,-1,-1,-1,-1],"loss_changes":[4.4887344E4,3.9046914E4,2.4541406E3,1.3695738E4,2.419354E4,1.0817812E3,1.0763633E3,0E0,0E0,0E0,0E0,0E0,0E0,0E0,0E0],"parents":[2147483647,0,0,1,1,2,2,3,3,4,4,5,5,6,6],"right_children":[2,4,6,8,10,12,14,-1,-1,-1,-1,-1,-1,-1,-1],"split_conditions":[1E0,8E0,1.6E1,1E1,1E0,1E0,1E0,3.437799E-2,3.6789548E-1,-2.2449079E-1,5.5967176E-1,8.5199547E-1,1.499767E0,3.237886E-1,1.1328601E0],"split_indices":[8,4,4,5,2,2,2,0,0,0,0,0,0,0,0],"split_type":[0,0,0,0,0,0,0,0,0,0,0,0,0,0,0],"sum_hessian":[3.364E3,3.197E3,1.67E2,1.262E3,1.935E3,1.28E2,3.9E1,7.31E2,5.31E2,1.832E3,1.03E2,1.2E2,8E0,3.5E1,4E0],"tree_param":{"num_deleted":"0","num_feature":"10","num_nodes":"15","size_leaf_vector":"1"}},{"base_weights":[9.873288E-3,-7.863901E-1,1.5167257E1,2.9530575E0,-3.981265E0,1.8975409E1,1.1315584E1,8.9894794E-2,6.6067E-1,-6.602639E-2,-4.2449912E-1,8.218441E-1,1.1687386E0,4.9331078E-1,1.2106823E0],"categories":[],"categories_nodes":[],"categories_segments":[],"categories_sizes":[],"default_left":[0,0,0,0,0,0,0,0,0,0,0,0,0,0,0],"id":8,"left_children":[1,3,5,7,9,11,13,-1,-1,-1,-1,-1,-1,-1,-1],"loss_changes":[4.062502E4,3.821848E4,2.2494648E3,1.7446611E4,2.0682775E4,5.427285E2,1.36879E3,0E0,0E0,0E0,0E0,0E0,0E0,0E0,0E0],"parents":[2147483647,0,0,1,1,2,2,3,3,4,4,5,5,6,6],"right_children":[2,4,6,8,10,12,14,-1,-1,-1,-1,-1,-1,-1,-1],"split_conditions":[1E0,7E0,9E0,1E0,1.3E1,1.2E1,1E0,8.9894794E-2,6.6067E-1,-6.602639E-2,-4.2449912E-1,8.218441E-1,1.1687386E0,4.9331078E-1,1.2106823E0],"split_indices":[8,3,4,1,4,6,1,0,0,0,0,0,0,0,0],"split_type":[0,0,0,0,0,0,0,0,0,0,0,0,0,0,0],"sum_hessian":[3.364E3,3.197E3,1.67E2,1.473E3,1.724E3,8.2E1,8.5E1,1.325E3,1.48E2,1.085E3,6.39E2,5.5E1,2.7E1,7.8E1,7E0],"tree_param":{"num_deleted":"0","num_feature":"10","num_nodes":"15","size_leaf_vector":"1"}},{"base_weights":[1.0554917E-2,3.728942E0,-2.9893088E0,2.8897948E0,1.8050621E1,-5.9623885E0,1.1922047E0,3.1899545E-1,-1.0303747E-2,7.814856E-1,1.1123886E0,-3.54981E-1,2.4965218E-1,1.7453998E-2,6.7052656E-1],"categories":[],"categories_nodes":[],"categories_segments":[],"categories_sizes":[],"default_left":[0,0,0,0,0,0,0,0,0,0,0,0,0,0,0],"id":9,"left_children":[1,3,5,7,9,11,13,-1,-1,-1,-1,-1,-1,-1,-1],"loss_changes":[3.7546562E4,1.8010889E4,2.3167875E4,1.5355131E4,4.9563086E2,1.3603145E4,7.979037E3,0E0,0E0,0E0,0E0,0E0,0E0,0E0,0E0],"parents":[2147483647,0,0,1,1,2,2,3,3,4,4,5,5,6,6],"right_children":[2,4,6,8,10,12,14,-1,-1,-1,-1,-1,-1,-1,-1],"split_conditions":[9E0,1E0,1E1,7E0,1.2E1,1E0,1E0,3.1899545E-1,-1.0303747E-2,7.814856E-1,1.1123886E0,-3.54981E-1,2.4965218E-1,1.7453998E-2,6.7052656E-1],"split_indices":[4,8,5,3,6,1,2,0,0,0,0,0,0,0,0],"split_type":[0,0,0,0,0,0,0,0,0,0,0,0,0,0,0],"sum_hessian":[3.364E3,1.502E3,1.862E3,1.42E3,8.2E1,1.088E3,7.74E2,6.67E2,7.53E2,5.5E1,2.7E1,9.86E2,1.02E2,7.25E2,4.9E1],"tree_param":{"num_deleted":"0","num_feature":"10","num_nodes":"15","size_leaf_vector":"1"}},{"base_weights":[1.08547835E-2,-7.453681E-1,1.4053675E1,-3.57949E0,3.1937072E0,1.2895036E1,1.36164E0,-3.231518E-1,1.3365859E-2,3.5449347E-1,2.6426896E-2,7.856478E-1,3.5362914E-1],"categories":[],"categories_nodes":[],"categories_segments":[],"categories_sizes":[],"default_left":[0,0,0,0,0,0,0,0,0,0,0,0,0],"id":10,"left_children":[1,3,5,7,9,11,-1,-1,-1,-1,-1,-1,-1],"loss_changes":[3.57451E4,3.5668668E4,2.2752422E3,2.0611492E4,1.387957E4,2.5140234E3,0E0,0E0,0E0,0E0,0E0,0E0,0E0],"parents":[2147483647,0,0,1,1,2,2,3,3,4,4,5,5],"right_children":[2,4,6,8,10,12,-1,-1,-1,-1,-1,-1,-1],"split_conditions":[1E0,1E1,1E0,1E1,8E0,1.4E1,1.36164E0,-3.231518E-1,1.3365859E-2,3.5449347E-1,2.6426896E-2,7.856478E-1,3.5362914E-1],"split_indices":[2,5,8,6,4,4,0,0,0,0,0,0,0],"split_type":[0,0,0,0,0,0,0,0,0,0,0,0,0],"sum_hessian":[3.364E3,3.193E3,1.71E2,1.857E3,1.336E3,1.59E2,1.2E1,1.061E3,7.96E2,5.42E2,7.94E2,1.06E2,5.3E1],"tree_param":{"num_deleted":"0","num_feature":"10","num_nodes":"13","size_leaf_vector":"1"}},{"base_weights":[1.107569E-2,-7.227834E-1,1.3980541E1,2.7312958E0,-3.67385E0,1.289131E1,1.2987951E0,8.250645E-2,6.167313E-1,-6.1307836E-2,-3.9107698E-1,7.4323726E-1,2.950141E-1],"categories":[],"categories_nodes":[],"categories_segments":[],"categories_sizes":[],"default_left":[0,0,0,0,0,0,0,0,0,0,0,0,0],"id":11,"left_children":[1,3,5,7,9,11,-1,-1,-1,-1,-1,-1,-1],"loss_changes":[3.4506805E4,3.2607947E4,1.8601797E3,1.5283897E4,1.750308E4,2.0645234E3,0E0,0E0,0E0,0E0,0E0,0E0,0E0],"parents":[2147483647,0,0,1,1,2,2,3,3,4,4,5,5],"right_children":[2,4,6,8,10,12,-1,-1,-1,-1,-1,-1,-1],"split_conditions":[1E0,7E0,1E0,1E0,1.3E1,1.6E1,1.2987951E0,8.250645E-2,6.167313E-1,-6.1307836E-2,-3.9107698E-1,7.4323726E-1,2.950141E-1],"split_indices":[8,3,2,1,4,4,0,0,0,0,0,0,0],"split_type":[0,0,0,0,0,0,0,0,0,0,0,0,0],"sum_hessian":[3.364E3,3.197E3,1.67E2,1.473E3,1.724E3,1.55E2,1.2E1,1.325E3,1.48E2,1.085E3,6.39E2,1.2E2,3.5E1],"tree_param":{"num_deleted":"0","num_feature":"10","num_nodes":"13","size_leaf_vector":"1"}},{"base_weights":[1.128829E-2,-7.048015E-1,1.3308843E1,-3.3876102E0,3.023967E0,1.6675713E1,9.666568E0,-7.826454E-3,-3.2782605E-1,2.6118648E-1,-5.5620648E-2,9.997811E-1,5.9959203E-1,4.2834607E-1,1.0347962E0],"categories":[],"categories_nodes":[],"categories_segments":[],"categories_sizes":[],"default_left":[0,0,0,0,0,0,0,0,0,0,0,0,0,0,0],"id":12,"left_children":[1,3,5,7,9,11,13,-1,-1,-1,-1,-1,-1,-1,-1],"loss_changes":[3.2051727E4,3.1961658E4,1.9480508E3,1.9023049E4,1.2171245E4,1.1286191E3,8.536128E2,0E0,0E0,0E0,0E0,0E0,0E0,0E0,0E0],"parents":[2147483647,0,0,1,1,2,2,3,3,4,4,5,5,6,6],"right_children":[2,4,6,8,10,12,14,-1,-1,-1,-1,-1,-1,-1,-1],"split_conditions":[1E0,1E1,1.1E1,1E1,1.3E1,8E0,1E0,-7.826454E-3,-3.2782605E-1,2.6118648E-1,-5.5620648E-2,9.997811E-1,5.9959203E-1,4.2834607E-1,1.0347962E0],"split_indices":[2,5,4,4,4,3,8,0,0,0,0,0,0,0,0],"split_type":[0,0,0,0,0,0,0,0,0,0,0,0,0,0,0],"sum_hessian":[3.364E3,3.193E3,1.71E2,1.857E3,1.336E3,8.7E1,8.4E1,9.2E2,9.37E2,8.72E2,4.64E2,4.9E1,3.8E1,7.8E1,6E0],"tree_param":{"num_deleted":"0","num_feature":"10","num_nodes":"15","size_leaf_vector":"1"}},{"base_weights":[1.1596767E-2,-6.8267137E-1,1.3227418E1,2.5839844E0,-3.4736094E0,1.2081802E1,1.2053623E0,7.771045E-2,5.865476E-1,-3.8082686E-1,-5.6227632E-2,7.2331226E-1,3.5632142E-1],"categories":[],"categories_nodes":[],"categories_segments":[],"categories_sizes":[],"default_left":[0,0,0,0,0,0,0,0,0,0,0,0,0],"id":13,"left_children":[1,3,5,7,9,11,-1,-1,-1,-1,-1,-1,-1],"loss_changes":[3.0883994E4,2.9165248E4,1.8027109E3,1.386585E4,1.6779088E4,1.716541E3,0E0,0E0,0E0,0E0,0E0,0E0,0E0],"parents":[2147483647,0,0,1,1,2,2,3,3,4,4,5,5],"right_children":[2,4,6,8,10,12,-1,-1,-1,-1,-1,-1,-1],"split_conditions":[1E0,7E0,1E0,1E0,7E0,1.3E1,1.2053623E0,7.771045E-2,5.865476E-1,-3.8082686E-1,-5.6227632E-2,7.2331226E-1,3.5632142E-1],"split_indices":[8,3,1,1,6,4,0,0,0,0,0,0,0],"split_type":[0,0,0,0,0,0,0,0,0,0,0,0,0],"sum_hessian":[3.364E3,3.197E3,1.67E2,1.473E3,1.724E3,1.53E2,1.4E1,1.325E3,1.48E2,6.23E2,1.101E3,1.02E2,5.1E1],"tree_param":{"num_deleted":"0","num_feature":"10","num_nodes":"13","size_leaf_vector":"1"}},{"base_weights":[1.1763948E-2,-2.9258587E0,2.959871E0,-4.119184E0,7.2710176E0,6.3129377E0,2.1621896E-1,-2.4423003E-1,5.1936454E-1,1.5747537E-1,5.3578675E-1,2.7559885E-1,8.210664E-1,-1.3011523E-1,1.6377401E-1],"categories":[],"categories_nodes":[],"categories_segments":[],"categories_sizes":[],"default_left":[0,0,0,0,0,0,0,0,0,0,0,0,0,0,0],"id":14,"left_children":[1,3,5,7,9,11,13,-1,-1,-1,-1,-1,-1,-1,-1],"loss_changes":[2.9150996E4,2.054552E4,1.5454045E4,1.681702E4,2.4791963E3,6.030379E3,7.984429E3,0E0,0E0,0E0,0E0,0E0,0E0,0E0,0E0],"parents":[2147483647,0,0,1,1,2,2,3,3,4,4,5,5,6,6],"right_children":[2,4,6,8,10,12,14,-1,-1,-1,-1,-1,-1,-1,-1],"split_conditions":[9E0,1E0,9E0,1E0,9E0,1E0,9E0,-2.4423003E-1,5.1936454E-1,1.5747537E-1,5.3578675E-1,2.7559885E-1,8.210664E-1,-1.3011523E-1,1.6377401E-1],"split_indices":[6,1,4,2,5,1,5,0,0,0,0,0,0,0,0],"split_type":[0,0,0,0,0,0,0,0,0,0,0,0,0,0,0],"sum_hessian":[3.364E3,1.685E3,1.679E3,1.509E3,1.76E2,7.55E2,9.24E2,1.434E3,7.5E1,8.1E1,9.5E1,7.01E2,5.4E1,4.81E2,4.43E2],"tree_param":{"num_deleted":"0","num_feature":"10","num_nodes":"15","size_leaf_vector":"1"}},{"base_weights":[1.17986845E-2,-6.4684445E-1,1.2549471E1,1.0562052E0,-5.6773043E0,1.1491999E1,1.1284777E0,2.0056656E-2,6.7223215E-1,-4.8382258E-1,-1.6754708E-1,5.227778E-1,1.1442639E0],"categories":[],"categories_nodes":[],"categories_segments":[],"categories_sizes":[],"default_left":[0,0,0,0,0,0,0,0,0,0,0,0,0],"id":15,"left_children":[1,3,5,7,9,11,-1,-1,-1,-1,-1,-1,-1],"loss_changes":[2.7795791E4,2.7403652E4,1.52075E3,1.9390223E4,7.49408E3,1.5792305E3,0E0,0E0,0E0,0E0,0E0,0E0,0E0],"parents":[2147483647,0,0,1,1,2,2,3,3,4,4,5,5],"right_children":[2,4,6,8,10,12,-1,-1,-1,-1,-1,-1,-1],"split_conditions":[1E0,1.5E1,1E0,1E0,7E0,1E0,1.1284777E0,2.0056656E-2,6.7223215E-1,-4.8382258E-1,-1.6754708E-1,5.227778E-1,1.1442639E0],"split_indices":[8,4,1,2,5,2,0,0,0,0,0,0,0],"split_type":[0,0,0,0,0,0,0,0,0,0,0,0,0],"sum_hessian":[3.364E3,3.197E3,1.67E2,2.389E3,8.08E2,1.53E2,1.4E1,2.27E3,1.19E2,2.96E2,5.12E2,1.42E2,1.1E1],"tree_param":{"num_deleted":"0","num_feature":"10","num_nodes":"13","size_leaf_vector":"1"}},{"base_weights":[1.205058E-2,-2.739561E0,2.9045053E0,-3.4650393E0,1.0478457E1,4.7330737E0,-1.2657558E0,-3.0879563E-1,4.4035455E-3,6.358105E-1,2.2405303E-1,3.4102866E-1,3.321196E-2,-1.0199262E-1,5.4777783E-1],"categories":[],"categories_nodes":[],"categories_segments":[],"categories_sizes":[],"default_left":[0,0,0,0,0,0,0,0,0,0,0,0,0,0,0],"id":16,"left_children":[1,3,5,7,9,11,13,-1,-1,-1,-1,-1,-1,-1,-1],"loss_changes":[2.67897E4,1.6577994E4,1.2519611E4,1.5758547E4,1.1508789E3,9.68677E3,4.7620464E3,0E0,0E0,0E0,0E0,0E0,0E0,0E0,0E0],"parents":[2147483647,0,0,1,1,2,2,3,3,4,4,5,5,6,6],"right_children":[2,4,6,8,10,12,14,-1,-1,-1,-1,-1,-1,-1,-1],"split_conditions":[9E0,1E0,1.4E1,1E1,1E1,1E1,1E0,-3.0879563E-1,4.4035455E-3,6.358105E-1,2.2405303E-1,3.4102866E-1,3.321196E-2,-1.0199262E-1,5.4777783E-1],"split_indices":[5,2,4,6,3,3,8,0,0,0,0,0,0,0,0],"split_type":[0,0,0,0,0,0,0,0,0,0,0,0,0,0,0],"sum_hessian":[3.364E3,1.724E3,1.64E3,1.635E3,8.9E1,1.14E3,5E2,9.27E2,7.08E2,6.4E1,2.5E1,7.53E2,3.87E2,4.71E2,2.9E1],"tree_param":{"num_deleted":"0","num_feature":"10","num_nodes":"15","size_leaf_vector":"1"}},{"base_weights":[1.18571455E-2,-9.0815234E-1,8.679278E0,-3.8305492E0,1.9691145E0,1.1217622E1,5.5251374E0,-2.2566131E-1,4.554937E-1,2.5176787E-1,-3.0864308E-2,4.3556648E-1,7.271723E-1,3.9302385E-1,5.7619955E-2],"categories":[],"categories_nodes":[],"categories_segments":[],"categories_sizes":[],"default_left":[0,0,0,0,0,0,0,0,0,0,0,0,0,0,0],"id":17,"left_children":[1,3,5,7,9,11,13,-1,-1,-1,-1,-1,-1,-1,-1],"loss_changes":[2.6840762E4,2.5594658E4,2.5240508E3,1.338065E4,1.2168545E4,1.3570254E3,1.4818687E3,0E0,0E0,0E0,0E0,0E0,0E0,0E0,0E0],"parents":[2147483647,0,0,1,1,2,2,3,3,4,4,5,5,6,6],"right_children":[2,4,6,8,10,12,14,-1,-1,-1,-1,-1,-1,-1,-1],"split_conditions":[1E0,9E0,1.2E1,1E0,9E0,9E0,1E1,-2.2566131E-1,4.554937E-1,2.5176787E-1,-3.0864308E-2,4.3556648E-1,7.271723E-1,3.9302385E-1,5.7619955E-2],"split_indices":[1,6,4,2,4,6,3,0,0,0,0,0,0,0,0],"split_type":[0,0,0,0,0,0,0,0,0,0,0,0,0,0,0],"sum_hessian":[3.364E3,3.042E3,3.22E2,1.509E3,1.533E3,1.77E2,1.45E2,1.434E3,7.5E1,7.01E2,8.32E2,1.03E2,7.4E1,9.4E1,5.1E1],"tree_param":{"num_deleted":"0","num_feature":"10","num_nodes":"15","size_leaf_vector":"1"}},{"base_weights":[1.1878467E-2,2.9819043E0,-2.5261502E0,9.2153513E-1,6.6571026E0,-3.190503E0,1.009511E1,8.556117E-3,6.105639E-1,4.0103245E-1,3.8996726E-2,-3.4082776E-1,-5.516368E-2,-1.0206534E-1,5.487907E-1],"categories":[],"categories_nodes":[],"categories_segments":[],"categories_sizes":[],"default_left":[0,0,0,0,0,0,0,0,0,0,0,0,0,0,0],"id":18,"left_children":[1,3,5,7,9,11,13,-1,-1,-1,-1,-1,-1,-1,-1],"loss_changes":[2.537294E4,1.1738448E4,1.5250929E4,8.427519E3,4.457426E3,1.3047973E4,9.950664E2,0E0,0E0,0E0,0E0,0E0,0E0,0E0,0E0],"parents":[2147483647,0,0,1,1,2,2,3,3,4,4,5,5,6,6],"right_children":[2,4,6,8,10,12,14,-1,-1,-1,-1,-1,-1,-1,-1],"split_conditions":[7E0,1.1E1,1E0,1E0,1.6E1,7E0,3E0,8.556117E-3,6.105639E-1,4.0103245E-1,3.8996726E-2,-3.4082776E-1,-5.516368E-2,-1.0206534E-1,5.487907E-1],"split_indices":[3,5,8,2,4,5,6,0,0,0,0,0,0,0,0],"split_type":[0,0,0,0,0,0,0,0,0,0,0,0,0,0,0],"sum_hessian":[3.364E3,1.55E3,1.814E3,9.94E2,5.56E2,1.724E3,9E1,9.33E2,6.1E1,4.51E2,1.05E2,6.29E2,1.095E3,6E0,8.4E1],"tree_param":{"num_deleted":"0","num_feature":"10","num_nodes":"15","size_leaf_vector":"1"}},{"base_weights":[1.1614655E-2,-8.6175144E-1,8.239607E0,1.1638969E0,-4.6196036E0,7.6166105E0,1.0262011E0,-1.0104915E-1,1.7341572E-1,-4.5183197E-1,-1.4105485E-1,5.057705E-1,2.263975E-1],"categories":[],"categories_nodes":[],"categories_segments":[],"categories_sizes":[],"default_left":[0,0,0,0,0,0,0,0,0,0,0,0,0],"id":19,"left_children":[1,3,5,7,9,11,-1,-1,-1,-1,-1,-1,-1],"loss_changes":[2.4188158E4,2.3168959E4,2.3156406E3,1.4524129E4,8.442885E3,2.339043E3,0E0,0E0,0E0,0E0,0E0,0E0,0E0],"parents":[2147483647,0,0,1,1,2,2,3,3,4,4,5,5],"right_children":[2,4,6,8,10,12,-1,-1,-1,-1,-1,-1,-1],"split_conditions":[1E0,1.3E1,1E0,8E0,6E0,1.2E1,1.0262011E0,-1.0104915E-1,1.7341572E-1,-4.5183197E-1,-1.4105485E-1,5.057705E-1,2.263975E-1],"split_indices":[1,4,8,6,6,4,0,0,0,0,0,0,0],"split_type":[0,0,0,0,0,0,0,0,0,0,0,0,0],"sum_hessian":[3.364E3,3.042E3,3.22E2,1.977E3,1.065E3,3.08E2,1.4E1,8.3E2,1.147E3,3.07E2,7.58E2,1.69E2,1.39E2],"tree_param":{"num_deleted":"0","num_feature":"10","num_nodes":"13","size_leaf_vector":"1"}},{"base_weights":[1.1401407E-2,2.8243754E0,-2.392419E0,7.2774987E0,1.2964678E0,-3.020891E0,9.547212E0,2.755332E-1,5.6002337E-1,3.2068387E-2,5.9673584E-1,-3.226017E-1,-5.2292675E-2,-8.083245E-2,5.177134E-1],"categories":[],"categories_nodes":[],"categories_segments":[],"categories_sizes":[],"default_left":[0,0,0,0,0,0,0,0,0,0,0,0,0,0,0],"id":20,"left_children":[1,3,5,7,9,11,13,-1,-1,-1,-1,-1,-1,-1,-1],"loss_changes":[2.27605E4,1.0543507E4,1.3648095E4,2.6830488E3,8.0486445E3,1.1682946E4,8.366377E2,0E0,0E0,0E0,0E0,0E0,0E0,0E0,0E0],"parents":[2147483647,0,0,1,1,2,2,3,3,4,4,5,5,6,6],"right_children":[2,4,6,8,10,12,14,-1,-1,-1,-1,-1,-1,-1,-1],"split_conditions":[7E0,5E0,1E0,1.2E1,1E0,7E0,3E0,2.755332E-1,5.6002337E-1,3.2068387E-2,5.9673584E-1,-3.226017E-1,-5.2292675E-2,-8.083245E-2,5.177134E-1],"split_indices":[3,4,8,6,2,5,6,0,0,0,0,0,0,0,0],"split_type":[0,0,0,0,0,0,0,0,0,0,0,0,0,0,0],"sum_hessian":[3.364E3,1.55E3,1.814E3,3.95E2,1.155E3,1.724E3,9E1,2.74E2,1.21E2,1.089E3,6.6E1,6.29E2,1.095E3,6E0,8.4E1],"tree_param":{"num_deleted":"0","num_feature":"10","num_nodes":"15","size_leaf_vector":"1"}},{"base_weights":[1.1284126E-2,3.4676735E0,-1.8642321E0,1.4922236E0,6.8045883E0,-2.530947E0,9.317042E0,-1.0568583E-1,1.8216632E-1,4.9440247E-1,2.3359887E-1,-1.7418833E-1,2.9621658E-1,4.09688E-1,1.0004605E0],"categories":[],"categories_nodes":[],"categories_segments":[],"categories_sizes":[],"default_left":[0,0,0,0,0,0,0,0,0,0,0,0,0,0,0],"id":21,"left_children":[1,3,5,7,9,11,13,-1,-1,-1,-1,-1,-1,-1,-1],"loss_changes":[2.1820125E4,7.794665E3,1.6289781E4,5.7864785E3,2.847164E3,1.6616734E4,1.3133184E3,0E0,0E0,0E0,0E0,0E0,0E0,0E0,0E0],"parents":[2147483647,0,0,1,1,2,2,3,3,4,4,5,5,6,6],"right_children":[2,4,6,8,10,12,14,-1,-1,-1,-1,-1,-1,-1,-1],"split_conditions":[7E0,1.1E1,1E0,7E0,6E0,1E0,1E0,-1.0568583E-1,1.8216632E-1,4.9440247E-1,2.3359887E-1,-1.7418833E-1,2.9621658E-1,4.09688E-1,1.0004605E0],"split_indices":[4,6,2,5,3,1,8,0,0,0,0,0,0,0,0],"split_type":[0,0,0,0,0,0,0,0,0,0,0,0,0,0,0],"sum_hessian":[3.364E3,1.183E3,2.181E3,7.44E2,4.39E2,2.059E3,1.22E2,2.78E2,4.66E2,1.78E2,2.61E2,1.851E3,2.08E2,1.12E2,1E1],"tree_param":{"num_deleted":"0","num_feature":"10","num_nodes":"15","size_leaf_vector":"1"}},{"base_weights":[1.1413306E-2,-5.637141E-1,1.0959306E1,2.1116002E0,-2.849424E0,1.2875446E1,6.897106E0,1.0891075E-2,2.762154E-1,-3.1142163E-1,-4.6674874E-2,3.3207902E-1,6.9176215E-1,2.7006602E-1,8.297995E-1],"categories":[],"categories_nodes":[],"categories_segments":[],"categories_sizes":[],"default_left":[0,0,0,0,0,0,0,0,0,0,0,0,0,0,0],"id":22,"left_children":[1,3,5,7,9,11,13,-1,-1,-1,-1,-1,-1,-1,-1],"loss_changes":[2.1193676E4,1.956176E4,1.2188672E3,9.52513E3,1.1161721E4,5.8421875E2,7.2277686E2,0E0,0E0,0E0,0E0,0E0,0E0,0E0,0E0],"parents":[2147483647,0,0,1,1,2,2,3,3,4,4,5,5,6,6],"right_children":[2,4,6,8,10,12,14,-1,-1,-1,-1,-1,-1,-1,-1],"split_conditions":[1E0,7E0,1E1,1.1E1,7E0,5E0,1E0,1.0891075E-2,2.762154E-1,-3.1142163E-1,-4.6674874E-2,3.3207902E-1,6.9176215E-1,2.7006602E-1,8.297995E-1],"split_indices":[8,3,3,5,6,6,1,0,0,0,0,0,0,0,0],"split_type":[0,0,0,0,0,0,0,0,0,0,0,0,0,0,0],"sum_hessian":[3.364E3,3.197E3,1.67E2,1.473E3,1.724E3,1.12E2,5.5E1,9.48E2,5.25E2,6.23E2,1.101E3,1.6E1,9.6E1,4.9E1,6E0],"tree_param":{"num_deleted":"0","num_feature":"10","num_nodes":"15","size_leaf_vector":"1"}},{"base_weights":[1.1453157E-2,-7.881335E-1,7.5443654E0,-3.0017178E0,2.1307566E0,8.8989725E0,2.5213015E0,3.1276125E-2,-2.4880321E-1,-4.2502624E-3,2.6120415E-1,3.0937043E-1,5.8910394E-1,2.4235804E-1,-3.7070792E-2],"categories":[],"categories_nodes":[],"categories_segments":[],"categories_sizes":[],"default_left":[0,0,0,0,0,0,0,0,0,0,0,0,0,0,0],"id":23,"left_children":[1,3,5,7,9,11,13,-1,-1,-1,-1,-1,-1,-1,-1],"loss_changes":[2.027407E4,1.9667855E4,2.1753457E3,1.2399546E4,8.999845E3,1.9128008E3,5.3479724E2,0E0,0E0,0E0,0E0,0E0,0E0,0E0,0E0],"parents":[2147483647,0,0,1,1,2,2,3,3,4,4,5,5,6,6],"right_children":[2,4,6,8,10,12,14,-1,-1,-1,-1,-1,-1,-1,-1],"split_conditions":[1E0,1E1,1.6E1,7E0,1E1,9E0,1E1,3.1276125E-2,-2.4880321E-1,-4.2502624E-3,2.6120415E-1,3.0937043E-1,5.8910394E-1,2.4235804E-1,-3.7070792E-2],"split_indices":[1,6,4,4,5,5,3,0,0,0,0,0,0,0,0],"split_type":[0,0,0,0,0,0,0,0,0,0,0,0,0,0,0],"sum_hessian":[3.364E3,3.042E3,3.22E2,1.73E3,1.312E3,2.53E2,6.9E1,6.1E2,1.12E3,7.65E2,5.47E2,1.32E2,1.21E2,4E1,2.9E1],"tree_param":{"num_deleted":"0","num_feature":"10","num_nodes":"15","size_leaf_vector":"1"}},{"base_weights":[1.1219627E-2,-5.5188763E-1,1.0467925E1,-2.626773E0,2.3319485E0,1.3285332E1,7.4279294E0,2.1103788E-2,-2.3068213E-1,8.783735E-2,6.06275E-1,8.150467E-1,5.388958E-1,-3.504693E-2,4.0270922E-1],"categories":[],"categories_nodes":[],"categories_segments":[],"categories_sizes":[],"default_left":[0,0,0,0,0,0,0,0,0,0,0,0,0,0,0],"id":24,"left_children":[1,3,5,7,9,11,13,-1,-1,-1,-1,-1,-1,-1,-1],"loss_changes":[1.9819727E4,1.911784E4,1.3744824E3,1.1257088E4,7.510374E3,4.8970996E2,4.383584E2,0E0,0E0,0E0,0E0,0E0,0E0,0E0,0E0],"parents":[2147483647,0,0,1,1,2,2,3,3,4,4,5,5,6,6],"right_children":[2,4,6,8,10,12,14,-1,-1,-1,-1,-1,-1,-1,-1],"split_conditions":[1E0,1E1,1.1E1,8E0,1E0,6E0,3E0,2.1103788E-2,-2.3068213E-1,8.783735E-2,6.06275E-1,8.150467E-1,5.388958E-1,-3.504693E-2,4.0270922E-1],"split_indices":[2,5,4,4,8,3,5,0,0,0,0,0,0,0,0],"split_type":[0,0,0,0,0,0,0,0,0,0,0,0,0,0,0],"sum_hessian":[3.364E3,3.193E3,1.71E2,1.857E3,1.336E3,8.7E1,8.4E1,7.33E2,1.124E3,1.263E3,7.3E1,3.7E1,5E1,6E0,7.8E1],"tree_param":{"num_deleted":"0","num_feature":"10","num_nodes":"15","size_leaf_vector":"1"}},{"base_weights":[1.13145495E-2,1.7175381E0,-3.3027065E0,1.1691812E0,1.1941569E1,-6.8083744E0,-1.3500967E0,-9.6068434E-2,1.4823799E-1,3.1268358E-1,6.407654E-1,-2.0725076E-1,-5.070212E-1,-1.0932975E-1,3.0813605E-1],"categories":[],"categories_nodes":[],"categories_segments":[],"categories_sizes":[],"default_left":[0,0,0,0,0,0,0,0,0,0,0,0,0,0,0],"id":25,"left_children":[1,3,5,7,9,11,13,-1,-1,-1,-1,-1,-1,-1,-1],"loss_changes":[1.9032932E4,1.24435E4,7.8217188E3,1.1714771E4,4.814375E2,3.5876172E3,4.638838E3,0E0,0E0,0E0,0E0,0E0,0E0,0E0,0E0],"parents":[2147483647,0,0,1,1,2,2,3,3,4,4,5,5,6,6],"right_children":[2,4,6,8,10,12,14,-1,-1,-1,-1,-1,-1,-1,-1],"split_conditions":[1E1,1E0,7E0,7E0,5E0,1.1E1,1E0,-9.6068434E-2,1.4823799E-1,3.1268358E-1,6.407654E-1,-2.0725076E-1,-5.070212E-1,-1.0932975E-1,3.0813605E-1],"split_indices":[3,8,6,5,6,4,1,0,0,0,0,0,0,0,0],"split_type":[0,0,0,0,0,0,0,0,0,0,0,0,0,0,0],"sum_hessian":[3.364E3,2.221E3,1.143E3,2.109E3,1.12E2,4.08E2,7.35E2,7.75E2,1.334E3,1.6E1,9.6E1,2.28E2,1.8E2,6.62E2,7.3E1],"tree_param":{"num_deleted":"0","num_feature":"10","num_nodes":"15","size_leaf_vector":"1"}},{"base_weights":[1.0894387E-2,1.3693833E0,-3.9663048E0,8.2377887E-1,1.1512042E1,-2.345336E0,-7.826857E0,3.3356145E-3,4.0585032E-1,7.504891E-1,4.7174183E-1,-1.4971203E-1,3.848575E-1,-6.412083E-1,-3.0511796E-1],"categories":[],"categories_nodes":[],"categories_segments":[],"categories_sizes":[],"default_left":[0,0,0,0,0,0,0,0,0,0,0,0,0,0,0],"id":26,"left_children":[1,3,5,7,9,11,13,-1,-1,-1,-1,-1,-1,-1,-1],"loss_changes":[1.8186463E4,1.38750205E4,5.3446064E3,1.3151574E4,7.8837305E2,3.9655984E3,2.1020566E3,0E0,0E0,0E0,0E0,0E0,0E0,0E0,0E0],"parents":[2147483647,0,0,1,1,2,2,3,3,4,4,5,5,6,6],"right_children":[2,4,6,8,10,12,14,-1,-1,-1,-1,-1,-1,-1,-1],"split_conditions":[1.5E1,1E0,1.1E1,1E0,5E0,1E0,5E0,3.3356145E-3,4.0585032E-1,7.504891E-1,4.7174183E-1,-1.4971203E-1,3.848575E-1,-6.412083E-1,-3.0511796E-1],"split_indices":[4,2,3,1,3,8,6,0,0,0,0,0,0,0,0],"split_type":[0,0,0,0,0,0,0,0,0,0,0,0,0,0,0],"sum_hessian":[3.364E3,2.508E3,8.56E2,2.381E3,1.27E2,6.04E2,2.52E2,2.158E3,2.23E2,4.5E1,8.2E1,5.68E2,3.6E1,6.3E1,1.89E2],"tree_param":{"num_deleted":"0","num_feature":"10","num_nodes":"15","size_leaf_vector":"1"}},{"base_weights":[1.0624206E-2,-4.4561753E0,1.1919225E0,-5.0427523E0,7.2511535E0,3.6760051E0,-8.402433E-1,-2.9373845E-1,1.3365392E-1,5.1402897E-1,1.8084942E-1,3.7604624E-1,1.15677476E-1,-1.5718506E-1,7.9349235E-2],"categories":[],"categories_nodes":[],"categories_segments":[],"categories_sizes":[],"default_left":[0,0,0,0,0,0,0,0,0,0,0,0,0,0,0],"id":27,"left_children":[1,3,5,7,9,11,13,-1,-1,-1,-1,-1,-1,-1,-1],"loss_changes":[1.7761148E4,4.8711064E3,1.3441046E4,4.323324E3,3.37136E2,6.2583623E3,8.195829E3,0E0,0E0,0E0,0E0,0E0,0E0,0E0,0E0],"parents":[2147483647,0,0,1,1,2,2,3,3,4,4,5,5,6,6],"right_children":[2,4,6,8,10,12,14,-1,-1,-1,-1,-1,-1,-1,-1],"split_conditions":[5E0,1E0,9E0,1E0,1.1E1,4E0,9E0,-2.9373845E-1,1.3365392E-1,5.1402897E-1,1.8084942E-1,3.7604624E-1,1.15677476E-1,-1.5718506E-1,7.9349235E-2],"split_indices":[6,2,4,1,4,3,5,0,0,0,0,0,0,0,0],"split_type":[0,0,0,0,0,0,0,0,0,0,0,0,0,0,0],"sum_hessian":[3.364E3,7.03E2,2.661E3,6.7E2,3.3E1,1.197E3,1.464E3,6.05E2,6.5E1,1.7E1,1.6E1,3.12E2,8.85E2,7.51E2,7.13E2],"tree_param":{"num_deleted":"0","num_feature":"10","num_nodes":"15","size_leaf_vector":"1"}},{"base_weights":[1.0375132E-2,-1.9013118E0,2.5641482E0,-2.7262518E0,5.4313693E0,4.1667533E0,-7.1409273E-1,-1.6395807E-1,3.637152E-1,6.688186E-2,3.757734E-1,1.4082101E-1,3.8878798E-1,1.9653765E-2,-2.8568968E-1],"categories":[],"categories_nodes":[],"categories_segments":[],"categories_sizes":[],"default_left":[0,0,0,0,0,0,0,0,0,0,0,0,0,0,0],"id":28,"left_children":[1,3,5,7,9,11,13,-1,-1,-1,-1,-1,-1,-1,-1],"loss_changes":[1.6432854E4,1.1659177E4,7.5735957E3,9.595248E3,1.6536367E3,4.6955156E3,2.6260776E3,0E0,0E0,0E0,0E0,0E0,0E0,0E0,0E0],"parents":[2147483647,0,0,1,1,2,2,3,3,4,4,5,5,6,6],"right_children":[2,4,6,8,10,12,14,-1,-1,-1,-1,-1,-1,-1,-1],"split_conditions":[1E1,1E0,1E1,1E0,7E0,1.2E1,1.7E1,-1.6395807E-1,3.637152E-1,6.688186E-2,3.757734E-1,1.4082101E-1,3.8878798E-1,1.9653765E-2,-2.8568968E-1],"split_indices":[6,1,3,2,5,5,4,0,0,0,0,0,0,0,0],"split_type":[0,0,0,0,0,0,0,0,0,0,0,0,0,0,0],"sum_hessian":[3.364E3,1.924E3,1.44E3,1.73E3,1.94E2,9.67E2,4.73E2,1.64E3,9E1,6.6E1,1.28E2,7.05E2,2.62E2,3.88E2,8.5E1],"tree_param":{"num_deleted":"0","num_feature":"10","num_nodes":"15","size_leaf_vector":"1"}},{"base_weights":[1.0126685E-2,-4.948748E-1,9.623131E0,7.7508277E-1,-4.2460537E0,1.0921749E1,5.194508E0,1.4204071E-1,-7.731714E-2,-2.5290832E-1,1.2758443E-1,4.0310964E-1,6.1535704E-1,9.867998E-2,5.215558E-1],"categories":[],"categories_nodes":[],"categories_segments":[],"categories_sizes":[],"default_left":[0,0,0,0,0,0,0,0,0,0,0,0,0,0,0],"id":29,"left_children":[1,3,5,7,9,11,13,-1,-1,-1,-1,-1,-1,-1,-1],"loss_changes":[1.6340429E4,1.5238046E4,9.094512E2,1.1465498E4,4.4790186E3,4.1182422E2,6.540785E2,0E0,0E0,0E0,0E0,0E0,0E0,0E0,0E0],"parents":[2147483647,0,0,1,1,2,2,3,3,4,4,5,5,6,6],"right_children":[2,4,6,8,10,12,14,-1,-1,-1,-1,-1,-1,-1,-1],"split_conditions":[1E0,1.5E1,1.6E1,8E0,1E0,7E0,1.2E1,1.4204071E-1,-7.731714E-2,-2.5290832E-1,1.2758443E-1,4.0310964E-1,6.1535704E-1,9.867998E-2,5.215558E-1],"split_indices":[8,4,4,3,1,5,6,0,0,0,0,0,0,0,0],"split_type":[0,0,0,0,0,0,0,0,0,0,0,0,0,0,0],"sum_hessian":[3.364E3,3.197E3,1.67E2,2.389E3,8.08E2,1.28E2,3.9E1,1.264E3,1.125E3,7.22E2,8.6E1,4.4E1,8.4E1,2.5E1,1.4E1],"tree_param":{"num_deleted":"0","num_feature":"10","num_nodes":"15","size_leaf_vector":"1"}},{"base_weights":[1.0088958E-2,-4.121555E0,1.1027513E0,-2.8249986E0,-8.695647E0,4.1247195E-1,7.5607643E0,-2.8195462E-1,-2.6462737E-2,-4.5994398E-1,2.667218E-1,9.02545E-2,-1.4385472E-1,5.6880945E-1,3.0639136E-1],"categories":[],"categories_nodes":[],"categories_segments":[],"categories_sizes":[],"default_left":[0,0,0,0,0,0,0,0,0,0,0,0,0,0,0],"id":30,"left_children":[1,3,5,7,9,11,13,-1,-1,-1,-1,-1,-1,-1,-1],"loss_changes":[1.519581E4,4.1505537E3,1.1863633E4,3.5502568E3,1.1434316E3,1.1027343E4,1.335375E3,0E0,0E0,0E0,0E0,0E0,0E0,0E0,0E0],"parents":[2147483647,0,0,1,1,2,2,3,3,4,4,5,5,6,6],"right_children":[2,4,6,8,10,12,14,-1,-1,-1,-1,-1,-1,-1,-1],"split_conditions":[5E0,1.2E1,1E0,8E0,1E0,1.4E1,5E0,-2.8195462E-1,-2.6462737E-2,-4.5994398E-1,2.667218E-1,9.02545E-2,-1.4385472E-1,5.6880945E-1,3.0639136E-1],"split_indices":[6,3,1,5,2,4,4,0,0,0,0,0,0,0,0],"split_type":[0,0,0,0,0,0,0,0,0,0,0,0,0,0,0],"sum_hessian":[3.364E3,7.03E2,2.661E3,5.49E2,1.54E2,2.405E3,2.56E2,2.46E2,3.03E2,1.49E2,5E0,1.69E3,7.15E2,6.8E1,1.88E2],"tree_param":{"num_deleted":"0","num_feature":"10","num_nodes":"15","size_leaf_vector":"1"}},{"base_weights":[9.679326E-3,-4.8216978E-1,9.1431465E0,-3.3826215E0,1.1669246E0,1.1368138E1,6.732059E0,6.520536E-2,-2.3306584E-1,1.3467629E-1,-8.668787E-2,6.62103E-1,4.3370923E-1,2.6439148E-1,5.197647E-1],"categories":[],"categories_nodes":[],"categories_segments":[],"categories_sizes":[],"default_left":[0,0,0,0,0,0,0,0,0,0,0,0,0,0,0],"id":31,"left_children":[1,3,5,7,9,11,13,-1,-1,-1,-1,-1,-1,-1,-1],"loss_changes":[1.5120956E4,1.5281229E4,8.4618945E2,6.9458555E3,9.024882E3,3.293828E2,3.9472852E2,0E0,0E0,0E0,0E0,0E0,0E0,0E0,0E0],"parents":[2147483647,0,0,1,1,2,2,3,3,4,4,5,5,6,6],"right_children":[2,4,6,8,10,12,14,-1,-1,-1,-1,-1,-1,-1,-1],"split_conditions":[1E0,7E0,1.1E1,4E0,1E1,8E0,1.2E1,6.520536E-2,-2.3306584E-1,1.3467629E-1,-8.668787E-2,6.62103E-1,4.3370923E-1,2.6439148E-1,5.197647E-1],"split_indices":[2,5,4,4,3,3,6,0,0,0,0,0,0,0,0],"split_type":[0,0,0,0,0,0,0,0,0,0,0,0,0,0,0],"sum_hessian":[3.364E3,3.193E3,1.71E2,1.157E3,2.036E3,8.7E1,8.4E1,2.48E2,9.09E2,1.334E3,7.02E2,4.9E1,3.8E1,6.2E1,2.2E1],"tree_param":{"num_deleted":"0","num_feature":"10","num_nodes":"15","size_leaf_vector":"1"}},{"base_weights":[9.718282E-3,-4.683813E-1,9.110627E0,-1.1335824E0,5.7545943E0,1.0281235E1,5.107651E0,-1.7780559E-1,3.3051316E-2,3.8666603E-1,1.6553754E-1,6.5794873E-1,4.4440016E-1,1.0246148E-1,5.034203E-1],"categories":[],"categories_nodes":[],"categories_segments":[],"categories_sizes":[],"default_left":[0,0,0,0,0,0,0,0,0,0,0,0,0,0,0],"id":32,"left_children":[1,3,5,7,9,11,13,-1,-1,-1,-1,-1,-1,-1,-1],"loss_changes":[1.46458545E4,1.324474E4,7.347207E2,1.2566604E4,1.468627E3,4.0025E2,5.862506E2,0E0,0E0,0E0,0E0,0E0,0E0,0E0,0E0],"parents":[2147483647,0,0,1,1,2,2,3,3,4,4,5,5,6,6],"right_children":[2,4,6,8,10,12,14,-1,-1,-1,-1,-1,-1,-1,-1],"split_conditions":[1E0,1E0,1.6E1,8E0,1.2E1,4E0,1.2E1,-1.7780559E-1,3.3051316E-2,3.8666603E-1,1.6553754E-1,6.5794873E-1,4.4440016E-1,1.0246148E-1,5.034203E-1],"split_indices":[8,1,4,6,4,3,6,0,0,0,0,0,0,0,0],"split_type":[0,0,0,0,0,0,0,0,0,0,0,0,0,0,0],"sum_hessian":[3.364E3,3.197E3,1.67E2,2.889E3,3.08E2,1.28E2,3.9E1,1.229E3,1.66E3,1.69E2,1.39E2,3.9E1,8.9E1,2.5E1,1.4E1],"tree_param":{"num_deleted":"0","num_feature":"10","num_nodes":"15","size_leaf_vector":"1"}},{"base_weights":[9.861933E-3,-1.9619972E0,2.0826511E0,7.9011273E-1,-3.7666814E0,1.6084077E0,1.0237574E1,-1.0097867E-1,1.302527E-1,-6.127411E-2,-2.871021E-1,1.4623706E-1,-7.04869E-2,5.6907874E-1,2.6817963E-1],"categories":[],"categories_nodes":[],"categories_segments":[],"categories_sizes":[],"default_left":[0,0,0,0,0,0,0,0,0,0,0,0,0,0,0],"id":33,"left_children":[1,3,5,7,9,11,13,-1,-1,-1,-1,-1,-1,-1,-1],"loss_changes":[1.3757677E4,8.570516E3,6.3299653E3,3.4932607E3,5.223578E3,6.1700415E3,4.4078027E2,0E0,0E0,0E0,0E0,0E0,0E0,0E0,0E0],"parents":[2147483647,0,0,1,1,2,2,3,3,4,4,5,5,6,6],"right_children":[2,4,6,8,10,12,14,-1,-1,-1,-1,-1,-1,-1,-1],"split_conditions":[9E0,6E0,1E0,8E0,9E0,1.4E1,1.7E1,-1.0097867E-1,1.302527E-1,-6.127411E-2,-2.871021E-1,1.4623706E-1,-7.04869E-2,5.6907874E-1,2.6817963E-1],"split_indices":[5,3,8,6,4,4,4,0,0,0,0,0,0,0,0],"split_type":[0,0,0,0,0,0,0,0,0,0,0,0,0,0,0],"sum_hessian":[3.364E3,1.724E3,1.64E3,6.83E2,1.041E3,1.551E3,8.9E1,2.68E2,4.15E2,4.56E2,5.85E2,1.08E3,4.71E2,7.1E1,1.8E1],"tree_param":{"num_deleted":"0","num_feature":"10","num_nodes":"15","size_leaf_vector":"1"}},{"base_weights":[9.545812E-3,-4.5708534E-1,8.674723E0,3.4293447E0,-1.511637E0,9.467238E0,2.8408754E0,1.04276456E-1,3.3518472E-1,-2.149632E-1,3.5407215E-3,4.1148993E-1,6.2932366E-1,6.596894E-3,6.0124373E-1],"categories":[],"categories_nodes":[],"categories_segments":[],"categories_sizes":[],"default_left":[0,0,0,0,0,0,0,0,0,0,0,0,0,0,0],"id":34,"left_children":[1,3,5,7,9,11,13,-1,-1,-1,-1,-1,-1,-1,-1],"loss_changes":[1.3610144E4,1.3095605E4,7.68333E2,2.9869019E3,1.108586E4,4.7925586E2,5.4574884E2,0E0,0E0,0E0,0E0,0E0,0E0,0E0,0E0],"parents":[2147483647,0,0,1,1,2,2,3,3,4,4,5,5,6,6],"right_children":[2,4,6,8,10,12,14,-1,-1,-1,-1,-1,-1,-1,-1],"split_conditions":[1E0,4E0,1.7E1,1.2E1,7E0,1.2E1,1E0,1.04276456E-1,3.3518472E-1,-2.149632E-1,3.5407215E-3,4.1148993E-1,6.2932366E-1,6.596894E-3,6.0124373E-1],"split_indices":[2,4,4,6,5,6,8,0,0,0,0,0,0,0,0],"split_type":[0,0,0,0,0,0,0,0,0,0,0,0,0,0,0],"sum_hessian":[3.364E3,3.193E3,1.71E2,6.81E2,2.512E3,1.5E2,2.1E1,4.84E2,1.97E2,9.09E2,1.603E3,1.1E2,4E1,1.7E1,4E0],"tree_param":{"num_deleted":"0","num_feature":"10","num_nodes":"15","size_leaf_vector":"1"}},{"base_weights":[9.626376E-3,1.421742E0,-2.733145E0,1.6043532E-1,4.5188537E0,-3.4576125E0,3.6556215E0,5.627374E-2,-1.8670204E-1,1.6238254E-1,3.9499277E-1,-2.55002E-1,-2.3647431E-2,-3.2029092E-1,2.2264223E-1],"categories":[],"categories_nodes":[],"categories_segments":[],"categories_sizes":[],"default_left":[0,0,0,0,0,0,0,0,0,0,0,0,0,0,0],"id":35,"left_children":[1,3,5,7,9,11,13,-1,-1,-1,-1,-1,-1,-1,-1],"loss_changes":[1.3036903E4,8.679313E3,5.30759E3,5.942353E3,2.737918E3,5.0369404E3,9.670062E2,0E0,0E0,0E0,0E0,0E0,0E0,0E0,0E0],"parents":[2147483647,0,0,1,1,2,2,3,3,4,4,5,5,6,6],"right_children":[2,4,6,8,10,12,14,-1,-1,-1,-1,-1,-1,-1,-1],"split_conditions":[1E1,1.2E1,1E0,1.6E1,1.2E1,1.1E1,3E0,5.627374E-2,-1.8670204E-1,1.6238254E-1,3.9499277E-1,-2.55002E-1,-2.3647431E-2,-3.2029092E-1,2.2264223E-1],"split_indices":[3,6,1,4,5,5,6,0,0,0,0,0,0,0,0],"split_type":[0,0,0,0,0,0,0,0,0,0,0,0,0,0,0],"sum_hessian":[3.364E3,2.221E3,1.143E3,1.579E3,6.42E2,1.027E3,1.16E2,1.266E3,3.13E2,4.68E2,1.74E2,6.62E2,3.65E2,8E0,1.08E2],"tree_param":{"num_deleted":"0","num_feature":"10","num_nodes":"15","size_leaf_vector":"1"}},{"base_weights":[9.15958E-3,-4.297919E-1,8.364861E0,-1.0501233E0,5.3734035E0,7.692033E0,7.357449E-1,-1.3479976E-1,5.819561E-2,3.3430794E-1,1.1262649E-1,4.584805E-1,2.3086844E-1],"categories":[],"categories_nodes":[],"categories_segments":[],"categories_sizes":[],"default_left":[0,0,0,0,0,0,0,0,0,0,0,0,0],"id":36,"left_children":[1,3,5,7,9,11,-1,-1,-1,-1,-1,-1,-1],"loss_changes":[1.2345564E4,1.1518137E4,6.0458887E2,1.0534352E4,1.2508945E3,6.57291E2,0E0,0E0,0E0,0E0,0E0,0E0,0E0],"parents":[2147483647,0,0,1,1,2,2,3,3,4,4,5,5],"right_children":[2,4,6,8,10,12,-1,-1,-1,-1,-1,-1,-1],"split_conditions":[1E0,1E0,1E0,1E1,1.1E1,1.3E1,7.357449E-1,-1.3479976E-1,5.819561E-2,3.3430794E-1,1.1262649E-1,4.584805E-1,2.3086844E-1],"split_indices":[8,1,1,6,3,4,0,0,0,0,0,0,0],"split_type":[0,0,0,0,0,0,0,0,0,0,0,0,0],"sum_hessian":[3.364E3,3.197E3,1.67E2,2.889E3,3.08E2,1.53E2,1.4E1,1.657E3,1.232E3,2.16E2,9.2E1,1.02E2,5.1E1],"tree_param":{"num_deleted":"0","num_feature":"10","num_nodes":"13","size_leaf_vector":"1"}},{"base_weights":[9.23472E-3,-4.345775E-1,8.25067E0,-1.8374252E0,2.200893E0,8.993842E0,2.7747798E0,-1.6637126E-1,4.2352024E-2,2.5351074E-1,4.1408516E-2,5.815756E-1,3.825855E-1,1.3070732E-2,5.6339693E-1],"categories":[],"categories_nodes":[],"categories_segments":[],"categories_sizes":[],"default_left":[0,0,0,0,0,0,0,0,0,0,0,0,0,0,0],"id":37,"left_children":[1,3,5,7,9,11,13,-1,-1,-1,-1,-1,-1,-1,-1],"loss_changes":[1.2311576E4,1.1812785E4,6.750029E2,8.342512E3,4.36785E3,4.455547E2,4.666754E2,0E0,0E0,0E0,0E0,0E0,0E0,0E0,0E0],"parents":[2147483647,0,0,1,1,2,2,3,3,4,4,5,5,6,6],"right_children":[2,4,6,8,10,12,14,-1,-1,-1,-1,-1,-1,-1,-1],"split_conditions":[1E0,1.1E1,1.7E1,1.1E1,5E0,4E0,1E0,-1.6637126E-1,4.2352024E-2,2.5351074E-1,4.1408516E-2,5.815756E-1,3.825855E-1,1.3070732E-2,5.6339693E-1],"split_indices":[2,5,4,6,3,3,8,0,0,0,0,0,0,0,0],"split_type":[0,0,0,0,0,0,0,0,0,0,0,0,0,0,0],"sum_hessian":[3.364E3,3.193E3,1.71E2,2.084E3,1.109E3,1.5E2,2.1E1,1.34E3,7.44E2,3.58E2,7.51E2,4.8E1,1.02E2,1.7E1,4E0],"tree_param":{"num_deleted":"0","num_feature":"10","num_nodes":"15","size_leaf_vector":"1"}},{"base_weights":[9.281772E-3,2.682017E0,-1.2603302E0,2.215886E0,1.0076357E1,1.298011E0,-2.6636121E0,4.0193748E-2,2.4087058E-1,5.8017975E-1,2.9242495E-1,-4.7479523E-3,1.8122691E-1,-1.5556864E-1,2.641215E-1],"categories":[],"categories_nodes":[],"categories_segments":[],"categories_sizes":[],"default_left":[0,0,0,0,0,0,0,0,0,0,0,0,0,0,0],"id":38,"left_children":[1,3,5,7,9,11,13,-1,-1,-1,-1,-1,-1,-1,-1],"loss_changes":[1.1421958E4,3.7139287E3,8.196006E3,3.746651E3,3.4538135E2,2.6221375E3,5.2608164E3,0E0,0E0,0E0,0E0,0E0,0E0,0E0,0E0],"parents":[2147483647,0,0,1,1,2,2,3,3,4,4,5,5,6,6],"right_children":[2,4,6,8,10,12,14,-1,-1,-1,-1,-1,-1,-1,-1],"split_conditions":[5E0,1E0,7E0,1.1E1,1.5E1,1.1E1,1E0,4.0193748E-2,2.4087058E-1,5.8017975E-1,2.9242495E-1,-4.7479523E-3,1.8122691E-1,-1.5556864E-1,2.641215E-1],"split_indices":[3,2,4,5,4,5,2,0,0,0,0,0,0,0,0],"split_type":[0,0,0,0,0,0,0,0,0,0,0,0,0,0,0],"sum_hessian":[3.364E3,1.083E3,2.281E3,1.02E3,6.3E1,8.08E2,1.473E3,6.62E2,3.58E2,4.5E1,1.8E1,5.06E2,3.02E2,1.395E3,7.8E1],"tree_param":{"num_deleted":"0","num_feature":"10","num_nodes":"15","size_leaf_vector":"1"}},{"base_weights":[9.244281E-3,-3.5141E0,9.410343E-1,-2.3979292E0,-7.4520345E0,5.0923884E-1,8.600298E0,-2.6756197E-1,-5.1996913E-2,1.2948075E-1,-4.0080675E-1,7.084038E-2,-1.5994565E-1,4.7098622E-1,2.291049E-1],"categories":[],"categories_nodes":[],"categories_segments":[],"categories_sizes":[],"default_left":[0,0,0,0,0,0,0,0,0,0,0,0,0,0,0],"id":39,"left_children":[1,3,5,7,9,11,13,-1,-1,-1,-1,-1,-1,-1,-1],"loss_changes":[1.105066E4,3.076497E3,8.799481E3,2.200248E3,8.9875684E2,8.488713E3,4.2438965E2,0E0,0E0,0E0,0E0,0E0,0E0,0E0,0E0],"parents":[2147483647,0,0,1,1,2,2,3,3,4,4,5,5,6,6],"right_children":[2,4,6,8,10,12,14,-1,-1,-1,-1,-1,-1,-1,-1],"split_conditions":[5E0,1.2E1,1E0,6E0,1E0,1.6E1,1.3E1,-2.6756197E-1,-5.1996913E-2,1.2948075E-1,-4.0080675E-1,7.084038E-2,-1.5994565E-1,4.7098622E-1,2.291049E-1],"split_indices":[6,3,8,5,4,4,3,0,0,0,0,0,0,0,0],"split_type":[0,0,0,0,0,0,0,0,0,0,0,0,0,0,0],"sum_hessian":[3.364E3,7.03E2,2.661E3,5.49E2,1.54E2,2.52E3,1.41E2,1.72E2,3.77E2,8E0,1.46E2,2.025E3,4.95E2,1.16E2,2.5E1],"tree_param":{"num_deleted":"0","num_feature":"10","num_nodes":"15","size_leaf_vector":"1"}},{"base_weights":[8.789223E-3,-5.7770747E-1,5.5341783E0,7.222461E-1,-3.1264708E0,4.4505075E-1,6.2725086E0,9.468327E-2,-1.0000165E-1,-2.2955719E-1,-2.3235498E-2,1.7888777E-1,-1.4290117E-1,3.6181632E-1,1.12679794E-1],"categories":[],"categories_nodes":[],"categories_segments":[],"categories_sizes":[],"default_left":[0,0,0,0,0,0,0,0,0,0,0,0,0,0,0],"id":40,"left_children":[1,3,5,7,9,11,13,-1,-1,-1,-1,-1,-1,-1,-1],"loss_changes":[1.0907892E4,1.0084551E4,1.2108682E3,6.432671E3,4.0056367E3,4.4482266E2,1.0760195E3,0E0,0E0,0E0,0E0,0E0,0E0,0E0,0E0],"parents":[2147483647,0,0,1,1,2,2,3,3,4,4,5,5,6,6],"right_children":[2,4,6,8,10,12,14,-1,-1,-1,-1,-1,-1,-1,-1],"split_conditions":[1E0,1E1,4E0,1.4E1,1.1E1,8E0,1.7E1,9.468327E-2,-1.0000165E-1,-2.2955719E-1,-2.3235498E-2,1.7888777E-1,-1.4290117E-1,3.6181632E-1,1.12679794E-1],"split_indices":[1,3,6,4,5,3,4,0,0,0,0,0,0,0,0],"split_type":[0,0,0,0,0,0,0,0,0,0,0,0,0,0,0],"sum_hessian":[3.364E3,3.042E3,3.22E2,2.015E3,1.027E3,4.1E1,2.81E2,1.409E3,6.06E2,6.62E2,3.65E2,2.1E1,2E1,2.26E2,5.5E1],"tree_param":{"num_deleted":"0","num_feature":"10","num_nodes":"15","size_leaf_vector":"1"}},{"base_weights":[8.424396E-3,-3.9615262E-1,7.5212765E0,3.0573604E0,-1.3332397E0,9.912302E0,5.9011717E0,1.2849198E-1,5.2125335E-1,-9.721657E-2,2.1404202E-1,3.6304173E-1,5.690405E-1,3.2277274E-1,2.888572E-2],"categories":[],"categories_nodes":[],"categories_segments":[],"categories_sizes":[],"default_left":[0,0,0,0,0,0,0,0,0,0,0,0,0,0,0],"id":41,"left_children":[1,3,5,7,9,11,13,-1,-1,-1,-1,-1,-1,-1,-1],"loss_changes":[1.0230989E4,1.0340634E4,6.077842E2,2.422894E3,8.629716E3,1.821377E2,3.0609424E2,0E0,0E0,0E0,0E0,0E0,0E0,0E0,0E0],"parents":[2147483647,0,0,1,1,2,2,3,3,4,4,5,5,6,6],"right_children":[2,4,6,8,10,12,14,-1,-1,-1,-1,-1,-1,-1,-1],"split_conditions":[1E0,4E0,9E0,1E0,1E0,5E0,1.9E1,1.2849198E-1,5.2125335E-1,-9.721657E-2,2.1404202E-1,3.6304173E-1,5.690405E-1,3.2277274E-1,2.888572E-2],"split_indices":[2,4,4,8,1,5,4,0,0,0,0,0,0,0,0],"split_type":[0,0,0,0,0,0,0,0,0,0,0,0,0,0,0],"sum_hessian":[3.364E3,3.193E3,1.71E2,6.81E2,2.512E3,6.7E1,1.04E2,6.4E2,4.1E1,2.266E3,2.46E2,2.6E1,4.1E1,9.4E1,1E1],"tree_param":{"num_deleted":"0","num_feature":"10","num_nodes":"15","size_leaf_vector":"1"}},{"base_weights":[8.613332E-3,-1.0745602E0,2.7391987E0,-2.3415067E0,1.3400385E0,4.270289E0,5.349389E-1,-1.3871312E-1,2.5609207E-1,1.1448073E-1,-1.2650639E-1,2.8986356E-1,9.0090476E-2,-6.887361E-2,1.1750139E-1],"categories":[],"categories_nodes":[],"categories_segments":[],"categories_sizes":[],"default_left":[0,0,0,0,0,0,0,0,0,0,0,0,0,0,0],"id":42,"left_children":[1,3,5,7,9,11,13,-1,-1,-1,-1,-1,-1,-1,-1],"loss_changes":[9.955597E3,7.3757305E3,3.2241396E3,5.120532E3,3.0560571E3,2.1154531E3,1.3674171E3,0E0,0E0,0E0,0E0,0E0,0E0,0E0,0E0],"parents":[2147483647,0,0,1,1,2,2,3,3,4,4,5,5,6,6],"right_children":[2,4,6,8,10,12,14,-1,-1,-1,-1,-1,-1,-1,-1],"split_conditions":[1.2E1,1.1E1,9E0,1E0,1.6E1,1.2E1,9E0,-1.3871312E-1,2.5609207E-1,1.1448073E-1,-1.2650639E-1,2.8986356E-1,9.0090476E-2,-6.887361E-2,1.1750139E-1],"split_indices":[6,5,3,2,4,4,5,0,0,0,0,0,0,0,0],"split_type":[0,0,0,0,0,0,0,0,0,0,0,0,0,0,0],"sum_hessian":[3.364E3,2.409E3,9.55E2,1.58E3,8.29E2,5.63E2,3.92E2,1.494E3,8.6E1,6.66E2,1.63E2,3.47E2,2.16E2,1.91E2,2.01E2],"tree_param":{"num_deleted":"0","num_feature":"10","num_nodes":"15","size_leaf_vector":"1"}},{"base_weights":[8.3420025E-3,-3.8066274E-1,7.4132757E0,1.2261125E0,-2.1552646E0,6.833069E0,6.437924E-1,9.7736865E-2,-1.3972746E-1,-2.2755344E-1,-4.1524194E-2,3.851941E-1,1.7033188E-1],"categories":[],"categories_nodes":[],"categories_segments":[],"categories_sizes":[],"default_left":[0,0,0,0,0,0,0,0,0,0,0,0,0],"id":43,"left_children":[1,3,5,7,9,11,-1,-1,-1,-1,-1,-1,-1],"loss_changes":[9.695887E3,9.121376E3,4.4448145E2,4.9241836E3,4.820572E3,4.332583E2,0E0,0E0,0E0,0E0,0E0,0E0,0E0],"parents":[2147483647,0,0,1,1,2,2,3,3,4,4,5,5],"right_children":[2,4,6,8,10,12,-1,-1,-1,-1,-1,-1,-1],"split_conditions":[1E0,8E0,1E0,1.7E1,7E0,1.2E1,6.437924E-1,9.7736865E-2,-1.3972746E-1,-2.2755344E-1,-4.1524194E-2,3.851941E-1,1.7033188E-1],"split_indices":[8,3,1,4,6,3,0,0,0,0,0,0,0],"split_type":[0,0,0,0,0,0,0,0,0,0,0,0,0],"sum_hessian":[3.364E3,3.197E3,1.67E2,1.678E3,1.519E3,1.53E2,1.4E1,1.421E3,2.57E2,5.4E2,9.79E2,1.21E2,3.2E1],"tree_param":{"num_deleted":"0","num_feature":"10","num_nodes":"13","size_leaf_vector":"1"}},{"base_weights":[8.188958E-3,-5.2688056E-1,5.0490813E0,-1.9760411E0,1.3840286E0,3.845716E-1,5.725891E0,2.5139665E-2,-1.6626823E-1,-4.8957244E-3,1.726489E-1,1.6114548E-1,-1.303619E-1,3.2977793E-1,1.04919314E-1],"categories":[],"categories_nodes":[],"categories_segments":[],"categories_sizes":[],"default_left":[0,0,0,0,0,0,0,0,0,0,0,0,0,0,0],"id":44,"left_children":[1,3,5,7,9,11,13,-1,-1,-1,-1,-1,-1,-1,-1],"loss_changes":[9.078832E3,8.429453E3,1.0175039E3,5.7914346E3,4.0260825E3,3.6505707E2,8.7579297E2,0E0,0E0,0E0,0E0,0E0,0E0,0E0,0E0],"parents":[2147483647,0,0,1,1,2,2,3,3,4,4,5,5,6,6],"right_children":[2,4,6,8,10,12,14,-1,-1,-1,-1,-1,-1,-1,-1],"split_conditions":[1E0,1E1,4E0,7E0,1E1,8E0,1.7E1,2.5139665E-2,-1.6626823E-1,-4.8957244E-3,1.726489E-1,1.6114548E-1,-1.303619E-1,3.2977793E-1,1.04919314E-1],"split_indices":[1,6,6,4,5,3,4,0,0,0,0,0,0,0,0],"split_type":[0,0,0,0,0,0,0,0,0,0,0,0,0,0,0],"sum_hessian":[3.364E3,3.042E3,3.22E2,1.73E3,1.312E3,4.1E1,2.81E2,6.1E2,1.12E3,7.65E2,5.47E2,2.1E1,2E1,2.26E2,5.5E1],"tree_param":{"num_deleted":"0","num_feature":"10","num_nodes":"15","size_leaf_vector":"1"}},{"base_weights":[7.925322E-3,2.758394E0,-9.5822E-1,3.5158958E0,-1.4567158E0,-3.2018297E0,3.1075415E-1,1.418158E-3,2.1527939E-1,-2.6991972E-1,-3.1280585E-3,1.1991974E-1,-1.9212237E-1,1.19508006E-1,-4.1307744E-2],"categories":[],"categories_nodes":[],"categories_segments":[],"categories_sizes":[],"default_left":[0,0,0,0,0,0,0,0,0,0,0,0,0,0,0],"id":45,"left_children":[1,3,5,7,9,11,13,-1,-1,-1,-1,-1,-1,-1,-1],"loss_changes":[8.944635E3,2.798956E3,7.093078E3,2.0434023E3,7.3603375E2,3.2380576E3,3.7656145E3,0E0,0E0,0E0,0E0,0E0,0E0,0E0,0E0],"parents":[2147483647,0,0,1,1,2,2,3,3,4,4,5,5,6,6],"right_children":[2,4,6,8,10,12,14,-1,-1,-1,-1,-1,-1,-1,-1],"split_conditions":[4E0,1.7E1,7E0,5E0,6E0,2E0,7E0,1.418158E-3,2.1527939E-1,-2.6991972E-1,-3.1280585E-3,1.1991974E-1,-1.9212237E-1,1.19508006E-1,-4.1307744E-2],"split_indices":[3,4,5,6,5,4,4,0,0,0,0,0,0,0,0],"split_type":[0,0,0,0,0,0,0,0,0,0,0,0,0,0,0],"sum_hessian":[3.364E3,8.74E2,2.49E3,7.41E2,1.33E2,8.99E2,1.591E3,1.37E2,6.04E2,3.4E1,9.9E1,9.2E1,8.07E2,5.62E2,1.029E3],"tree_param":{"num_deleted":"0","num_feature":"10","num_nodes":"15","size_leaf_vector":"1"}},{"base_weights":[7.5151343E-3,-3.6606643E-1,6.944794E0,-2.5240662E0,8.6089957E-1,9.084404E0,5.493002E0,4.6450954E-2,-1.7330739E-1,8.494812E-2,-1.1561914E-1,3.334499E-1,5.210435E-1,-2.9990053E-2,2.9671612E-1],"categories":[],"categories_nodes":[],"categories_segments":[],"categories_sizes":[],"default_left":[0,0,0,0,0,0,0,0,0,0,0,0,0,0,0],"id":46,"left_children":[1,3,5,7,9,11,13,-1,-1,-1,-1,-1,-1,-1,-1],"loss_changes":[8.723409E3,8.459222E3,4.8437793E2,3.7702969E3,5.4211465E3,1.5001465E2,2.8589185E2,0E0,0E0,0E0,0E0,0E0,0E0,0E0,0E0],"parents":[2147483647,0,0,1,1,2,2,3,3,4,4,5,5,6,6],"right_children":[2,4,6,8,10,12,14,-1,-1,-1,-1,-1,-1,-1,-1],"split_conditions":[1E0,7E0,9E0,4E0,1.2E1,5E0,3E0,4.6450954E-2,-1.7330739E-1,8.494812E-2,-1.1561914E-1,3.334499E-1,5.210435E-1,-2.9990053E-2,2.9671612E-1],"split_indices":[2,5,4,4,3,5,5,0,0,0,0,0,0,0,0],"split_type":[0,0,0,0,0,0,0,0,0,0,0,0,0,0,0],"sum_hessian":[3.364E3,3.193E3,1.71E2,1.157E3,2.036E3,6.7E1,1.04E2,2.48E2,9.09E2,1.611E3,4.25E2,2.6E1,4.1E1,7E0,9.7E1],"tree_param":{"num_deleted":"0","num_feature":"10","num_nodes":"15","size_leaf_vector":"1"}},{"base_weights":[7.4247834E-3,-3.5954896E-1,6.9929876E0,-8.717282E-1,4.4318995E0,6.465716E0,5.9700555E-1,-1.9424155E-1,-3.1105299E-3,2.98318E-1,1.2684852E-1,3.7881374E-1,2.0708072E-1],"categories":[],"categories_nodes":[],"categories_segments":[],"categories_sizes":[],"default_left":[0,0,0,0,0,0,0,0,0,0,0,0,0],"id":47,"left_children":[1,3,5,7,9,11,-1,-1,-1,-1,-1,-1,-1],"loss_changes":[8.628753E3,7.8520127E3,3.6102246E2,7.04893E3,8.833408E2,3.661045E2,0E0,0E0,0E0,0E0,0E0,0E0,0E0],"parents":[2147483647,0,0,1,1,2,2,3,3,4,4,5,5],"right_children":[2,4,6,8,10,12,-1,-1,-1,-1,-1,-1,-1],"split_conditions":[1E0,1E0,1E0,5E0,1.2E1,1.3E1,5.9700555E-1,-1.9424155E-1,-3.1105299E-3,2.98318E-1,1.2684852E-1,3.7881374E-1,2.0708072E-1],"split_indices":[8,1,1,6,4,4,0,0,0,0,0,0,0],"split_type":[0,0,0,0,0,0,0,0,0,0,0,0,0],"sum_hessian":[3.364E3,3.197E3,1.67E2,2.889E3,3.08E2,1.53E2,1.4E1,6.11E2,2.278E3,1.69E2,1.39E2,1.02E2,5.1E1],"tree_param":{"num_deleted":"0","num_feature":"10","num_nodes":"13","size_leaf_vector":"1"}},{"base_weights":[7.47153E-3,-3.476743E-1,6.602404E0,2.6288395E0,-1.1553284E0,8.204934E0,4.8656387E0,9.647722E-2,3.2931527E-1,-1.8764676E-1,-5.608332E-3,2.8945586E-1,4.6471244E-1,-5.2451737E-2,2.664067E-1],"categories":[],"categories_nodes":[],"categories_segments":[],"categories_sizes":[],"default_left":[0,0,0,0,0,0,0,0,0,0,0,0,0,0,0],"id":48,"left_children":[1,3,5,7,9,11,13,-1,-1,-1,-1,-1,-1,-1,-1],"loss_changes":[7.883674E3,7.681392E3,4.3879102E2,1.8746836E3,6.809115E3,1.7777393E2,2.381073E2,0E0,0E0,0E0,0E0,0E0,0E0,0E0,0E0],"parents":[2147483647,0,0,1,1,2,2,3,3,4,4,5,5,6,6],"right_children":[2,4,6,8,10,12,14,-1,-1,-1,-1,-1,-1,-1,-1],"split_conditions":[1E0,4E0,1.1E1,1.4E1,6E0,5E0,3E0,9.647722E-2,3.2931527E-1,-1.8764676E-1,-5.608332E-3,2.8945586E-1,4.6471244E-1,-5.2451737E-2,2.664067E-1],"split_indices":[2,4,4,6,5,5,5,0,0,0,0,0,0,0,0],"split_type":[0,0,0,0,0,0,0,0,0,0,0,0,0,0,0],"sum_hessian":[3.364E3,3.193E3,1.71E2,6.81E2,2.512E3,8.7E1,8.4E1,5.8E2,1.01E2,7.19E2,1.793E3,2.9E1,5.8E1,6E0,7.8E1],"tree_param":{"num_deleted":"0","num_feature":"10","num_nodes":"15","size_leaf_vector":"1"}},{"base_weights":[7.453961E-3,2.5784843E0,-8.956609E-1,3.2833304E0,-1.3437117E0,-2.3605175E0,6.3236636E-1,1.323535E-1,3.6475858E-1,-2.182831E-1,1.4277703E-2,-3.8193416E-2,-1.9779828E-1,-1.5261933E-1,6.2206414E-2],"categories":[],"categories_nodes":[],"categories_segments":[],"categories_sizes":[],"default_left":[0,0,0,0,0,0,0,0,0,0,0,0,0,0,0],"id":49,"left_children":[1,3,5,7,9,11,13,-1,-1,-1,-1,-1,-1,-1,-1],"loss_changes":[7.8156235E3,2.4233882E3,5.577199E3,1.8747002E3,6.6100366E2,3.2372349E3,2.7539106E3,0E0,0E0,0E0,0E0,0E0,0E0,0E0,0E0],"parents":[2147483647,0,0,1,1,2,2,3,3,4,4,5,5,6,6],"right_children":[2,4,6,8,10,12,14,-1,-1,-1,-1,-1,-1,-1,-1],"split_conditions":[4E0,1.7E1,9E0,1.4E1,7E0,1E1,4E0,1.323535E-1,3.6475858E-1,-2.182831E-1,1.4277703E-2,-3.8193416E-2,-1.9779828E-1,-1.5261933E-1,6.2206414E-2],"split_indices":[3,4,5,6,6,4,6,0,0,0,0,0,0,0,0],"split_type":[0,0,0,0,0,0,0,0,0,0,0,0,0,0,0],"sum_hessian":[3.364E3,8.74E2,2.49E3,7.41E2,1.33E2,1.271E3,1.219E3,6.41E2,1E2,4.6E1,8.7E1,6.36E2,6.35E2,1.73E2,1.046E3],"tree_param":{"num_deleted":"0","num_feature":"10","num_nodes":"15","size_leaf_vector":"1"}},{"base_weights":[7.071224E-3,-3.397758E-1,6.60951E0,7.296976E-1,-2.41163E0,6.10561E0,5.6711257E-1,1.28792375E-2,2.6310548E-1,-2.3211192E-1,-5.8022168E-2,3.5605162E-1,1.925555E-1],"categories":[],"categories_nodes":[],"categories_segments":[],"categories_sizes":[],"default_left":[0,0,0,0,0,0,0,0,0,0,0,0,0],"id":50,"left_children":[1,3,5,7,9,11,-1,-1,-1,-1,-1,-1,-1],"loss_changes":[7.7082173E3,7.087865E3,3.313994E2,4.5136436E3,3.0339097E3,3.2512402E2,0E0,0E0,0E0,0E0,0E0,0E0,0E0],"parents":[2147483647,0,0,1,1,2,2,3,3,4,4,5,5],"right_children":[2,4,6,8,10,12,-1,-1,-1,-1,-1,-1,-1],"split_conditions":[1E0,1E1,1E0,1E0,7E0,1E1,5.6711257E-1,1.28792375E-2,2.6310548E-1,-2.3211192E-1,-5.8022168E-2,3.5605162E-1,1.925555E-1],"split_indices":[8,3,1,1,6,3,0,0,0,0,0,0,0],"split_type":[0,0,0,0,0,0,0,0,0,0,0,0,0],"sum_hessian":[3.364E3,3.197E3,1.67E2,2.109E3,1.088E3,1.53E2,1.4E1,1.911E3,1.98E2,3.9E2,6.98E2,1.04E2,4.9E1],"tree_param":{"num_deleted":"0","num_feature":"10","num_nodes":"13","size_leaf_vector":"1"}},{"base_weights":[7.045404E-3,-9.2028123E-1,2.344755E0,-1.9880904E0,1.114811E0,3.5859525E0,4.5392382E-1,-1.1779771E-1,2.1780495E-1,9.7104944E-2,-1.1283137E-1,1.5208319E-1,4.5113406E-1,-2.7103878E-3,3.5496408E-1],"categories":[],"categories_nodes":[],"categories_segments":[],"categories_sizes":[],"default_left":[0,0,0,0,0,0,0,0,0,0,0,0,0,0,0],"id":51,"left_children":[1,3,5,7,9,11,13,-1,-1,-1,-1,-1,-1,-1,-1],"loss_changes":[7.296873E3,5.2393633E3,2.242004E3,3.6999966E3,2.3193774E3,1.6799854E3,1.2835367E3,0E0,0E0,0E0,0E0,0E0,0E0,0E0,0E0],"parents":[2147483647,0,0,1,1,2,2,3,3,4,4,5,5,6,6],"right_children":[2,4,6,8,10,12,14,-1,-1,-1,-1,-1,-1,-1,-1],"split_conditions":[1.2E1,1.1E1,1.2E1,1E0,1.6E1,1E0,1E0,-1.1779771E-1,2.1780495E-1,9.7104944E-2,-1.1283137E-1,1.5208319E-1,4.5113406E-1,-2.7103878E-3,3.5496408E-1],"split_indices":[6,5,4,2,4,1,8,0,0,0,0,0,0,0,0],"split_type":[0,0,0,0,0,0,0,0,0,0,0,0,0,0,0],"sum_hessian":[3.364E3,2.409E3,9.55E2,1.58E3,8.29E2,5.76E2,3.79E2,1.494E3,8.6E1,6.66E2,1.63E2,5.25E2,5.1E1,3.53E2,2.6E1],"tree_param":{"num_deleted":"0","num_feature":"10","num_nodes":"15","size_leaf_vector":"1"}},{"base_weights":[7.0025073E-3,-4.5678562E-1,4.3763533E0,5.869206E-1,-2.5031426E0,2.6530728E-1,4.973118E0,1.2578112E-2,3.3440235E-1,-2.2531165E-2,-1.8733892E-1,1.319353E-1,-1.116872E-1,2.852057E-1,9.60583E-2],"categories":[],"categories_nodes":[],"categories_segments":[],"categories_sizes":[],"default_left":[0,0,0,0,0,0,0,0,0,0,0,0,0,0,0],"id":52,"left_children":[1,3,5,7,9,11,13,-1,-1,-1,-1,-1,-1,-1,-1],"loss_changes":[6.8210137E3,6.5006953E3,7.911045E2,4.1231816E3,2.622371E3,2.5500647E2,6.181738E2,0E0,0E0,0E0,0E0,0E0,0E0,0E0,0E0],"parents":[2147483647,0,0,1,1,2,2,3,3,4,4,5,5,6,6],"right_children":[2,4,6,8,10,12,14,-1,-1,-1,-1,-1,-1,-1,-1],"split_conditions":[1E0,1E1,4E0,1E0,8E0,8E0,1.7E1,1.2578112E-2,3.3440235E-1,-2.2531165E-2,-1.8733892E-1,1.319353E-1,-1.116872E-1,2.852057E-1,9.60583E-2],"split_indices":[1,3,6,8,4,3,4,0,0,0,0,0,0,0,0],"split_type":[0,0,0,0,0,0,0,0,0,0,0,0,0,0,0],"sum_hessian":[3.364E3,3.042E3,3.22E2,2.015E3,1.027E3,4.1E1,2.81E2,1.911E3,1.04E2,3.88E2,6.39E2,2.1E1,2E1,2.26E2,5.5E1],"tree_param":{"num_deleted":"0","num_feature":"10","num_nodes":"15","size_leaf_vector":"1"}},{"base_weights":[6.813E-3,-3.2043353E-1,6.0836654E0,-3.0953493E0,4.1739884E-1,5.0760083E0,8.733421E0,-1.12288766E-1,-3.0156156E-1,1.5479723E-1,-1.7220706E-2,2.944318E-1,8.46388E-2,5.933852E-1,3.639077E-1],"categories":[],"categories_nodes":[],"categories_segments":[],"categories_sizes":[],"default_left":[0,0,0,0,0,0,0,0,0,0,0,0,0,0,0],"id":53,"left_children":[1,3,5,7,9,11,13,-1,-1,-1,-1,-1,-1,-1,-1],"loss_changes":[6.693686E3,6.5407603E3,4.149165E2,1.6600962E3,5.151416E3,3.391941E2,1.2344116E2,0E0,0E0,0E0,0E0,0E0,0E0,0E0,0E0],"parents":[2147483647,0,0,1,1,2,2,3,3,4,4,5,5,6,6],"right_children":[2,4,6,8,10,12,14,-1,-1,-1,-1,-1,-1,-1,-1],"split_conditions":[1E0,5E0,1.2E1,1.2E1,4E0,1.6E1,7E0,-1.12288766E-1,-3.0156156E-1,1.5479723E-1,-1.7220706E-2,2.944318E-1,8.46388E-2,5.933852E-1,3.639077E-1],"split_indices":[2,6,6,3,4,4,4,0,0,0,0,0,0,0,0],"split_type":[0,0,0,0,0,0,0,0,0,0,0,0,0,0,0],"sum_hessian":[3.364E3,3.193E3,1.71E2,6.7E2,2.523E3,1.26E2,4.5E1,5.21E2,1.49E2,5.58E2,1.965E3,1.01E2,2.5E1,1.2E1,3.3E1],"tree_param":{"num_deleted":"0","num_feature":"10","num_nodes":"15","size_leaf_vector":"1"}},{"base_weights":[6.786871E-3,-3.0801633E-1,5.9992504E0,2.8992382E-1,-3.5350811E0,5.5324597E0,5.1958436E-1,1.321233E-1,-2.6680548E-2,-3.3613396E-1,-1.1383928E-1,3.2411295E-1,1.7723666E-1],"categories":[],"categories_nodes":[],"categories_segments":[],"categories_sizes":[],"default_left":[0,0,0,0,0,0,0,0,0,0,0,0,0],"id":54,"left_children":[1,3,5,7,9,11,-1,-1,-1,-1,-1,-1,-1],"loss_changes":[6.3497417E3,6.171859E3,2.869673E2,5.230453E3,1.9901641E3,2.6776465E2,0E0,0E0,0E0,0E0,0E0,0E0,0E0],"parents":[2147483647,0,0,1,1,2,2,3,3,4,4,5,5],"right_children":[2,4,6,8,10,12,-1,-1,-1,-1,-1,-1,-1],"split_conditions":[1E0,1.7E1,1E0,4E0,6E0,1.3E1,5.1958436E-1,1.321233E-1,-2.6680548E-2,-3.3613396E-1,-1.1383928E-1,3.2411295E-1,1.7723666E-1],"split_indices":[8,4,1,3,5,4,0,0,0,0,0,0,0],"split_type":[0,0,0,0,0,0,0,0,0,0,0,0,0],"sum_hessian":[3.364E3,3.197E3,1.67E2,2.698E3,4.99E2,1.53E2,1.4E1,6.99E2,1.999E3,1.4E2,3.59E2,1.02E2,5.1E1],"tree_param":{"num_deleted":"0","num_feature":"10","num_nodes":"13","size_leaf_vector":"1"}},{"base_weights":[6.6482844E-3,-8.5363775E-1,2.175354E0,-1.8564467E0,1.0575606E0,3.358996E0,4.7115707E-1,-1.0945215E-1,1.9400983E-1,9.029231E-2,-9.961101E-2,1.17830396E-1,3.0061945E-1,4.1374315E-2,-2.6485366E-1],"categories":[],"categories_nodes":[],"categories_segments":[],"categories_sizes":[],"default_left":[0,0,0,0,0,0,0,0,0,0,0,0,0,0,0],"id":55,"left_children":[1,3,5,7,9,11,13,-1,-1,-1,-1,-1,-1,-1,-1],"loss_changes":[6.279962E3,4.620889E3,1.9268213E3,3.025021E3,1.8977463E3,1.485919E3,8.12151E2,0E0,0E0,0E0,0E0,0E0,0E0,0E0,0E0],"parents":[2147483647,0,0,1,1,2,2,3,3,4,4,5,5,6,6],"right_children":[2,4,6,8,10,12,14,-1,-1,-1,-1,-1,-1,-1,-1],"split_conditions":[1.2E1,1.1E1,9E0,1E0,1.6E1,1.2E1,1.9E1,-1.0945215E-1,1.9400983E-1,9.029231E-2,-9.961101E-2,1.17830396E-1,3.0061945E-1,4.1374315E-2,-2.6485366E-1],"split_indices":[6,5,3,2,4,5,4,0,0,0,0,0,0,0,0],"split_type":[0,0,0,0,0,0,0,0,0,0,0,0,0,0,0],"sum_hessian":[3.364E3,2.409E3,9.55E2,1.58E3,8.29E2,5.63E2,3.92E2,1.494E3,8.6E1,6.66E2,1.63E2,4.1E2,1.53E2,3.7E2,2.2E1],"tree_param":{"num_deleted":"0","num_feature":"10","num_nodes":"15","size_leaf_vector":"1"}},{"base_weights":[6.395153E-3,-4.3381438E-1,4.1536126E0,-1.1194036E0,2.2203844E0,4.609574E0,-4.5326233E-1,3.1349786E-2,-1.1364565E-1,2.3348844E-1,5.0250363E-2,5.1706392E-2,2.625793E-1,-2.6677617E-1,3.6830544E-2],"categories":[],"categories_nodes":[],"categories_segments":[],"categories_sizes":[],"default_left":[0,0,0,0,0,0,0,0,0,0,0,0,0,0,0],"id":56,"left_children":[1,3,5,7,9,11,13,-1,-1,-1,-1,-1,-1,-1,-1],"loss_changes":[6.1450967E3,5.5398022E3,6.8056885E2,4.874471E3,1.855885E3,6.694404E2,1.7820836E2,0E0,0E0,0E0,0E0,0E0,0E0,0E0,0E0],"parents":[2147483647,0,0,1,1,2,2,3,3,4,4,5,5,6,6],"right_children":[2,4,6,8,10,12,14,-1,-1,-1,-1,-1,-1,-1,-1],"split_conditions":[1E0,1.3E1,1.4E1,8E0,5E0,4E0,4E0,3.1349786E-2,-1.1364565E-1,2.3348844E-1,5.0250363E-2,5.1706392E-2,2.625793E-1,-2.6677617E-1,3.6830544E-2],"split_indices":[1,5,3,4,3,5,6,0,0,0,0,0,0,0,0],"split_type":[0,0,0,0,0,0,0,0,0,0,0,0,0,0,0],"sum_hessian":[3.364E3,3.042E3,3.22E2,2.418E3,6.24E2,2.93E2,2.9E1,9.62E2,1.456E3,2.06E2,4.18E2,4.5E1,2.48E2,5E0,2.4E1],"tree_param":{"num_deleted":"0","num_feature":"10","num_nodes":"15","size_leaf_vector":"1"}},{"base_weights":[6.160994E-3,-2.9691035E-1,5.6340895E0,-2.4332168E0,5.684525E-1,4.667758E0,8.179525E0,-1.8562831E-1,-3.783177E-3,6.377342E-2,-1.0453514E-1,3.6455095E-1,1.8536928E-1,5.551929E-1,3.410412E-1],"categories":[],"categories_nodes":[],"categories_segments":[],"categories_sizes":[],"default_left":[0,0,0,0,0,0,0,0,0,0,0,0,0,0,0],"id":57,"left_children":[1,3,5,7,9,11,13,-1,-1,-1,-1,-1,-1,-1,-1],"loss_changes":[5.7412314E3,5.906068E3,3.8489453E2,2.7775776E3,4.2779346E3,2.929214E2,1.0703418E2,0E0,0E0,0E0,0E0,0E0,0E0,0E0,0E0],"parents":[2147483647,0,0,1,1,2,2,3,3,4,4,5,5,6,6],"right_children":[2,4,6,8,10,12,14,-1,-1,-1,-1,-1,-1,-1,-1],"split_conditions":[1E0,6E0,1.2E1,1.1E1,1.2E1,6E0,7E0,-1.8562831E-1,-3.783177E-3,6.377342E-2,-1.0453514E-1,3.6455095E-1,1.8536928E-1,5.551929E-1,3.410412E-1],"split_indices":[2,5,6,6,3,4,4,0,0,0,0,0,0,0,0],"split_type":[0,0,0,0,0,0,0,0,0,0,0,0,0,0,0],"sum_hessian":[3.364E3,3.193E3,1.71E2,9.2E2,2.273E3,1.26E2,4.5E1,5.96E2,3.24E2,1.796E3,4.77E2,3.2E1,9.4E1,1.2E1,3.3E1],"tree_param":{"num_deleted":"0","num_feature":"10","num_nodes":"15","size_leaf_vector":"1"}},{"base_weights":[6.213724E-3,-2.9099384E-1,5.663735E0,-7.1367115E-1,3.6631439E0,5.23825E0,4.8272315E-1,-7.6646456E-3,-1.908479E-1,-7.987092E-3,2.1408649E-1,3.0424124E-1,1.7303228E-1],"categories":[],"categories_nodes":[],"categories_segments":[],"categories_sizes":[],"default_left":[0,0,0,0,0,0,0,0,0,0,0,0,0],"id":58,"left_children":[1,3,5,7,9,11,-1,-1,-1,-1,-1,-1,-1],"loss_changes":[5.6597544E3,5.3475103E3,2.3469043E2,5.025166E3,7.3140137E2,2.1069336E2,0E0,0E0,0E0,0E0,0E0,0E0,0E0],"parents":[2147483647,0,0,1,1,2,2,3,3,4,4,5,5],"right_children":[2,4,6,8,10,12,-1,-1,-1,-1,-1,-1,-1],"split_conditions":[1E0,1E0,1E0,1.7E1,4E0,1.3E1,4.8272315E-1,-7.6646456E-3,-1.908479E-1,-7.987092E-3,2.1408649E-1,3.0424124E-1,1.7303228E-1],"split_indices":[8,1,1,4,5,4,0,0,0,0,0,0,0],"split_type":[0,0,0,0,0,0,0,0,0,0,0,0,0],"sum_hessian":[3.364E3,3.197E3,1.67E2,2.889E3,3.08E2,1.53E2,1.4E1,2.448E3,4.41E2,4.3E1,2.65E2,1.02E2,5.1E1],"tree_param":{"num_deleted":"0","num_feature":"10","num_nodes":"13","size_leaf_vector":"1"}},{"base_weights":[6.1901873E-3,-2.4685328E0,6.606601E-1,-2.8129213E0,4.40068E0,2.7844684E0,-1.1623019E-1,-1.6376306E-1,7.374095E-2,3.251964E-1,9.574244E-2,2.5282297E-1,1.0095512E-1,-1.3344938E-1,2.9101074E-2],"categories":[],"categories_nodes":[],"categories_segments":[],"categories_sizes":[],"default_left":[0,0,0,0,0,0,0,0,0,0,0,0,0,0,0],"id":59,"left_children":[1,3,5,7,9,11,13,-1,-1,-1,-1,-1,-1,-1,-1],"loss_changes":[5.4516914E3,1.6778159E3,4.392533E3,1.3350166E3,1.6530878E2,1.2296294E3,3.4773645E3,0E0,0E0,0E0,0E0,0E0,0E0,0E0,0E0],"parents":[2147483647,0,0,1,1,2,2,3,3,4,4,5,5,6,6],"right_children":[2,4,6,8,10,12,14,-1,-1,-1,-1,-1,-1,-1,-1],"split_conditions":[5E0,1E0,4E0,1E0,1.1E1,5E0,5E0,-1.6376306E-1,7.374095E-2,3.251964E-1,9.574244E-2,2.5282297E-1,1.0095512E-1,-1.3344938E-1,2.9101074E-2],"split_indices":[6,2,3,1,4,4,5,0,0,0,0,0,0,0,0],"split_type":[0,0,0,0,0,0,0,0,0,0,0,0,0,0,0],"sum_hessian":[3.364E3,7.03E2,2.661E3,6.7E2,3.3E1,7.12E2,1.949E3,6.05E2,6.5E1,1.7E1,1.6E1,1.78E2,5.34E2,4.18E2,1.531E3],"tree_param":{"num_deleted":"0","num_feature":"10","num_nodes":"15","size_leaf_vector":"1"}},{"base_weights":[6.0529206E-3,-7.805486E-1,1.9890064E0,1.0253292E0,-1.63392E0,1.6961007E0,7.7465734E0,2.888047E-3,1.390408E-1,-1.0260844E-1,1.2783638E-1,-4.532816E-2,1.2054131E-1,5.2916414E-1,3.2170543E-1],"categories":[],"categories_nodes":[],"categories_segments":[],"categories_sizes":[],"default_left":[0,0,0,0,0,0,0,0,0,0,0,0,0,0,0],"id":60,"left_children":[1,3,5,7,9,11,13,-1,-1,-1,-1,-1,-1,-1,-1],"loss_changes":[5.2502603E3,3.7156885E3,1.599082E3,1.3145195E3,2.8744712E3,1.6968188E3,1.0316797E2,0E0,0E0,0E0,0E0,0E0,0E0,0E0,0E0],"parents":[2147483647,0,0,1,1,2,2,3,3,4,4,5,5,6,6],"right_children":[2,4,6,8,10,12,14,-1,-1,-1,-1,-1,-1,-1,-1],"split_conditions":[1.2E1,5E0,1E0,1.1E1,1E0,5E0,7E0,2.888047E-3,1.390408E-1,-1.0260844E-1,1.2783638E-1,-4.532816E-2,1.2054131E-1,5.2916414E-1,3.2170543E-1],"split_indices":[6,3,2,5,1,5,4,0,0,0,0,0,0,0,0],"split_type":[0,0,0,0,0,0,0,0,0,0,0,0,0,0,0],"sum_hessian":[3.364E3,2.409E3,9.55E2,7.73E2,1.636E3,9.1E2,4.5E1,4.99E2,2.74E2,1.488E3,1.48E2,1.96E2,7.14E2,1.2E1,3.3E1],"tree_param":{"num_deleted":"0","num_feature":"10","num_nodes":"15","size_leaf_vector":"1"}},{"base_weights":[6.0749087E-3,-2.750409E-1,5.357279E0,4.3528804E-1,-2.3732004E0,4.957563E0,4.55194E-1,-1.7556958E-2,1.2315502E-1,-6.828842E-2,-2.370948E-1,3.503119E-1,2.1249044E-1],"categories":[],"categories_nodes":[],"categories_segments":[],"categories_sizes":[],"default_left":[0,0,0,0,0,0,0,0,0,0,0,0,0],"id":61,"left_children":[1,3,5,7,9,11,-1,-1,-1,-1,-1,-1,-1],"loss_changes":[5.0634707E3,4.767279E3,2.0645996E2,3.8122625E3,1.9240405E3,1.9351831E2,0E0,0E0,0E0,0E0,0E0,0E0,0E0],"parents":[2147483647,0,0,1,1,2,2,3,3,4,4,5,5],"right_children":[2,4,6,8,10,12,-1,-1,-1,-1,-1,-1,-1],"split_conditions":[1E0,1.5E1,1E0,1.2E1,1.1E1,4E0,4.55194E-1,-1.7556958E-2,1.2315502E-1,-6.828842E-2,-2.370948E-1,3.503119E-1,2.1249044E-1],"split_indices":[8,4,1,5,3,4,0,0,0,0,0,0,0],"split_type":[0,0,0,0,0,0,0,0,0,0,0,0,0],"sum_hessian":[3.364E3,3.197E3,1.67E2,2.389E3,8.08E2,1.53E2,1.4E1,1.722E3,6.67E2,5.68E2,2.4E2,3.7E1,1.16E2],"tree_param":{"num_deleted":"0","num_feature":"10","num_nodes":"13","size_leaf_vector":"1"}},{"base_weights":[6.013409E-3,-2.7477252E-1,5.220108E0,-1.7160338E0,7.949284E-1,5.554715E0,-1.8229848E-1,5.8350172E-2,-1.23530306E-1,-7.376483E-2,7.1359485E-2,2.5835985E-1,5.2022696E-1,7.2621785E-2,-1.2172333E-1],"categories":[],"categories_nodes":[],"categories_segments":[],"categories_sizes":[],"default_left":[0,0,0,0,0,0,0,0,0,0,0,0,0,0,0],"id":62,"left_children":[1,3,5,7,9,11,13,-1,-1,-1,-1,-1,-1,-1,-1],"loss_changes":[4.927944E3,4.925613E3,3.1193457E2,2.9636846E3,2.6345845E3,2.506997E2,4.4034565E1,0E0,0E0,0E0,0E0,0E0,0E0,0E0,0E0],"parents":[2147483647,0,0,1,1,2,2,3,3,4,4,5,5,6,6],"right_children":[2,4,6,8,10,12,14,-1,-1,-1,-1,-1,-1,-1,-1],"split_conditions":[1E0,8E0,1.9E1,4E0,5E0,1E0,8E0,5.8350172E-2,-1.23530306E-1,-7.376483E-2,7.1359485E-2,2.5835985E-1,5.2022696E-1,7.2621785E-2,-1.2172333E-1],"split_indices":[2,6,4,4,5,1,3,0,0,0,0,0,0,0,0],"split_type":[0,0,0,0,0,0,0,0,0,0,0,0,0,0,0],"sum_hessian":[3.364E3,3.193E3,1.71E2,1.36E3,1.833E3,1.61E2,1E1,2.82E2,1.078E3,3.99E2,1.434E3,1.51E2,1E1,6E0,4E0],"tree_param":{"num_deleted":"0","num_feature":"10","num_nodes":"15","size_leaf_vector":"1"}},{"base_weights":[5.9105842E-3,8.482503E-1,-1.6301775E0,2.8319292E0,1.6047774E-1,-2.0833163E0,2.3651805E0,1.1053202E-1,3.067356E-1,-7.676761E-2,5.7396688E-2,-1.2258929E-1,1.4215966E-1,-2.5594777E-1,1.480719E-1],"categories":[],"categories_nodes":[],"categories_segments":[],"categories_sizes":[],"default_left":[0,0,0,0,0,0,0,0,0,0,0,0,0,0,0],"id":63,"left_children":[1,3,5,7,9,11,13,-1,-1,-1,-1,-1,-1,-1,-1],"loss_changes":[4.6388306E3,3.0310645E3,2.0760847E3,1.1601719E3,2.7664568E3,1.8730669E3,5.372685E2,0E0,0E0,0E0,0E0,0E0,0E0,0E0,0E0],"parents":[2147483647,0,0,1,1,2,2,3,3,4,4,5,5,6,6],"right_children":[2,4,6,8,10,12,14,-1,-1,-1,-1,-1,-1,-1,-1],"split_conditions":[1E1,5E0,1E0,1.4E1,7E0,1.5E1,3E0,1.1053202E-1,3.067356E-1,-7.676761E-2,5.7396688E-2,-1.2258929E-1,1.4215966E-1,-2.5594777E-1,1.480719E-1],"split_indices":[3,4,1,6,5,5,6,0,0,0,0,0,0,0,0],"split_type":[0,0,0,0,0,0,0,0,0,0,0,0,0,0,0],"sum_hessian":[3.364E3,2.221E3,1.143E3,5.71E2,1.65E3,1.027E3,1.16E2,4.82E2,8.9E1,6.07E2,1.043E3,9.56E2,7.1E1,8E0,1.08E2],"tree_param":{"num_deleted":"0","num_feature":"10","num_nodes":"15","size_leaf_vector":"1"}},{"base_weights":[5.707276E-3,-2.6094872E-1,5.0816603E0,2.3641323E-1,-2.9451866E0,4.7040105E0,4.310045E-1,-2.1186944E-3,2.6098928E-1,-2.7653357E-1,-9.621786E-2,2.6190218E-1,1.2521605E-1],"categories":[],"categories_nodes":[],"categories_segments":[],"categories_sizes":[],"default_left":[0,0,0,0,0,0,0,0,0,0,0,0,0],"id":64,"left_children":[1,3,5,7,9,11,-1,-1,-1,-1,-1,-1,-1],"loss_changes":[4.555966E3,4.2701475E3,1.8394727E2,3.749942E3,1.3090259E3,1.6778687E2,0E0,0E0,0E0,0E0,0E0,0E0,0E0],"parents":[2147483647,0,0,1,1,2,2,3,3,4,4,5,5],"right_children":[2,4,6,8,10,12,-1,-1,-1,-1,-1,-1,-1],"split_conditions":[1E0,1.7E1,1E0,1E0,6E0,1.7E1,4.310045E-1,-2.1186944E-3,2.6098928E-1,-2.7653357E-1,-9.621786E-2,2.6190218E-1,1.2521605E-1],"split_indices":[8,4,1,2,5,4,0,0,0,0,0,0,0],"split_type":[0,0,0,0,0,0,0,0,0,0,0,0,0],"sum_hessian":[3.364E3,3.197E3,1.67E2,2.698E3,4.99E2,1.53E2,1.4E1,2.556E3,1.42E2,1.4E2,3.59E2,1.22E2,3.1E1],"tree_param":{"num_deleted":"0","num_feature":"10","num_nodes":"13","size_leaf_vector":"1"}},{"base_weights":[5.6301686E-3,-3.6782128E-1,3.5239184E0,-1.3874143E0,9.7664446E-1,3.9409015E0,-6.7998046E-1,5.572469E-2,-1.0283744E-1,1.68045E-2,1.7078105E-1,2.238175E-1,3.5563815E-2,-2.544664E-1,2.027311E-2],"categories":[],"categories_nodes":[],"categories_segments":[],"categories_sizes":[],"default_left":[0,0,0,0,0,0,0,0,0,0,0,0,0,0,0],"id":65,"left_children":[1,3,5,7,9,11,13,-1,-1,-1,-1,-1,-1,-1,-1],"loss_changes":[4.422603E3,4.172724E3,5.6888403E2,2.9010483E3,2.0501482E3,5.052295E2,1.4564635E2,0E0,0E0,0E0,0E0,0E0,0E0,0E0,0E0],"parents":[2147483647,0,0,1,1,2,2,3,3,4,4,5,5,6,6],"right_children":[2,4,6,8,10,12,14,-1,-1,-1,-1,-1,-1,-1,-1],"split_conditions":[1E0,1E1,1.4E1,4E0,1.3E1,1.8E1,4E0,5.572469E-2,-1.0283744E-1,1.68045E-2,1.7078105E-1,2.238175E-1,3.5563815E-2,-2.544664E-1,2.027311E-2],"split_indices":[1,6,3,4,5,4,6,0,0,0,0,0,0,0,0],"split_type":[0,0,0,0,0,0,0,0,0,0,0,0,0,0,0],"sum_hessian":[3.364E3,3.042E3,3.22E2,1.73E3,1.312E3,2.93E2,2.9E1,3.65E2,1.365E3,1.04E3,2.72E2,2.51E2,4.2E1,5E0,2.4E1],"tree_param":{"num_deleted":"0","num_feature":"10","num_nodes":"15","size_leaf_vector":"1"}},{"base_weights":[5.3978483E-3,1.901566E0,-6.60661E-1,-1.8354668E-1,2.6366343E0,8.524457E-1,-1.4862647E0,-1.3020667E-1,3.456212E-2,1.5459119E-1,-3.706364E-3,2.5268508E-2,2.4622586E-1,-1.9100626E-1,-4.3666545E-2],"categories":[],"categories_nodes":[],"categories_segments":[],"categories_sizes":[],"default_left":[0,0,0,0,0,0,0,0,0,0,0,0,0,0,0],"id":66,"left_children":[1,3,5,7,9,11,13,-1,-1,-1,-1,-1,-1,-1,-1],"loss_changes":[4.251115E3,1.3415964E3,3.1130908E3,4.8670816E2,7.9856934E2,1.2412301E3,2.3026328E3,0E0,0E0,0E0,0E0,0E0,0E0,0E0,0E0],"parents":[2147483647,0,0,1,1,2,2,3,3,4,4,5,5,6,6],"right_children":[2,4,6,8,10,12,14,-1,-1,-1,-1,-1,-1,-1,-1],"split_conditions":[4E0,6E0,7E0,5E0,1.7E1,1.5E1,5E0,-1.3020667E-1,3.456212E-2,1.5459119E-1,-3.706364E-3,2.5268508E-2,2.4622586E-1,-1.9100626E-1,-4.3666545E-2],"split_indices":[3,6,4,5,4,6,5,0,0,0,0,0,0,0,0],"split_type":[0,0,0,0,0,0,0,0,0,0,0,0,0,0,0],"sum_hessian":[3.364E3,8.74E2,2.49E3,2.28E2,6.46E2,8.79E2,1.611E3,6E1,1.68E2,5.53E2,9.3E1,8.11E2,6.8E1,3.34E2,1.277E3],"tree_param":{"num_deleted":"0","num_feature":"10","num_nodes":"15","size_leaf_vector":"1"}},{"base_weights":[5.1554013E-3,-2.507563E-1,4.757346E0,3.283971E-1,-2.420703E0,3.9825504E0,6.793035E0,-7.537231E-2,5.3495366E-2,-2.2087152E-1,-6.766527E-2,3.0876133E-1,1.5894812E-1,4.656251E-1,2.814957E-1],"categories":[],"categories_nodes":[],"categories_segments":[],"categories_sizes":[],"default_left":[0,0,0,0,0,0,0,0,0,0,0,0,0,0,0],"id":67,"left_children":[1,3,5,7,9,11,13,-1,-1,-1,-1,-1,-1,-1,-1],"loss_changes":[4.093508E3,4.014797E3,2.4423193E2,3.4348022E3,1.4283877E3,2.0414417E2,8.2371826E1,0E0,0E0,0E0,0E0,0E0,0E0,0E0,0E0],"parents":[2147483647,0,0,1,1,2,2,3,3,4,4,5,5,6,6],"right_children":[2,4,6,8,10,12,14,-1,-1,-1,-1,-1,-1,-1,-1],"split_conditions":[1E0,1.2E1,1.2E1,6E0,7E0,6E0,3E0,-7.537231E-2,5.3495366E-2,-2.2087152E-1,-6.766527E-2,3.0876133E-1,1.5894812E-1,4.656251E-1,2.814957E-1],"split_indices":[2,3,6,5,6,4,3,0,0,0,0,0,0,0,0],"split_type":[0,0,0,0,0,0,0,0,0,0,0,0,0,0,0],"sum_hessian":[3.364E3,3.193E3,1.71E2,2.521E3,6.72E2,1.26E2,4.5E1,7.25E2,1.796E3,2.33E2,4.39E2,3.2E1,9.4E1,1.2E1,3.3E1],"tree_param":{"num_deleted":"0","num_feature":"10","num_nodes":"15","size_leaf_vector":"1"}},{"base_weights":[5.1669236E-3,-2.4659817E-1,4.7976646E0,-8.0688727E-1,1.9174463E0,4.4537396E0,4.004391E-1,-1.3663902E-4,-1.1716721E-1,2.6899958E-1,7.178587E-2,3.103145E-1,1.9232346E-1],"categories":[],"categories_nodes":[],"categories_segments":[],"categories_sizes":[],"default_left":[0,0,0,0,0,0,0,0,0,0,0,0,0],"id":68,"left_children":[1,3,5,7,9,11,-1,-1,-1,-1,-1,-1,-1],"loss_changes":[4.061337E3,3.879092E3,1.4986719E2,3.1395234E3,1.089825E3,1.4002563E2,0E0,0E0,0E0,0E0,0E0,0E0,0E0],"parents":[2147483647,0,0,1,1,2,2,3,3,4,4,5,5],"right_children":[2,4,6,8,10,12,-1,-1,-1,-1,-1,-1,-1],"split_conditions":[1E0,1.3E1,1E0,1E1,2E0,4E0,4.004391E-1,-1.3663902E-4,-1.1716721E-1,2.6899958E-1,7.178587E-2,3.103145E-1,1.9232346E-1],"split_indices":[8,6,1,3,3,4,0,0,0,0,0,0,0],"split_type":[0,0,0,0,0,0,0,0,0,0,0,0,0],"sum_hessian":[3.364E3,3.197E3,1.67E2,2.54E3,6.57E2,1.53E2,1.4E1,1.668E3,8.72E2,7.9E1,5.78E2,3.7E1,1.16E2],"tree_param":{"num_deleted":"0","num_feature":"10","num_nodes":"13","size_leaf_vector":"1"}},{"base_weights":[5.2441764E-3,-3.4923467E-1,3.344792E0,-9.055214E-1,1.8043764E0,4.8863728E-2,3.8238137E0,2.5003595E-2,-9.1696136E-2,1.1796977E-1,-7.823606E-2,9.8950475E-2,-9.877603E-2,2.272183E-1,9.738073E-2],"categories":[],"categories_nodes":[],"categories_segments":[],"categories_sizes":[],"default_left":[0,0,0,0,0,0,0,0,0,0,0,0,0,0,0],"id":69,"left_children":[1,3,5,7,9,11,13,-1,-1,-1,-1,-1,-1,-1,-1],"loss_changes":[3.9846516E3,3.6472246E3,5.0977222E2,3.1576028E3,1.1723878E3,1.6801855E2,3.7238477E2,0E0,0E0,0E0,0E0,0E0,0E0,0E0,0E0],"parents":[2147483647,0,0,1,1,2,2,3,3,4,4,5,5,6,6],"right_children":[2,4,6,8,10,12,14,-1,-1,-1,-1,-1,-1,-1,-1],"split_conditions":[1E0,1.3E1,4E0,8E0,1.3E1,8E0,1.5E1,2.5003595E-2,-9.1696136E-2,1.1796977E-1,-7.823606E-2,9.8950475E-2,-9.877603E-2,2.272183E-1,9.738073E-2],"split_indices":[1,5,6,4,3,3,4,0,0,0,0,0,0,0,0],"split_type":[0,0,0,0,0,0,0,0,0,0,0,0,0,0,0],"sum_hessian":[3.364E3,3.042E3,3.22E2,2.418E3,6.24E2,4.1E1,2.81E2,9.62E2,1.456E3,5.36E2,8.8E1,2.1E1,2E1,2.02E2,7.9E1],"tree_param":{"num_deleted":"0","num_feature":"10","num_nodes":"15","size_leaf_vector":"1"}},{"base_weights":[5.0706877E-3,-2.3887828E-1,4.5351167E0,-2.3274384E0,3.164556E-1,4.817659E0,-3.8237832E-2,-2.4778973E-1,-8.903006E-2,1.170088E-1,-1.2955859E-2,2.2432096E-1,4.4784075E-1,6.787747E-2,-9.923462E-2],"categories":[],"categories_nodes":[],"categories_segments":[],"categories_sizes":[],"default_left":[0,0,0,0,0,0,0,0,0,0,0,0,0,0,0],"id":70,"left_children":[1,3,5,7,9,11,13,-1,-1,-1,-1,-1,-1,-1,-1],"loss_changes":[3.7197454E3,3.7052917E3,2.2243652E2,9.555923E2,2.9405574E3,1.8192627E2,3.2579517E1,0E0,0E0,0E0,0E0,0E0,0E0,0E0,0E0],"parents":[2147483647,0,0,1,1,2,2,3,3,4,4,5,5,6,6],"right_children":[2,4,6,8,10,12,14,-1,-1,-1,-1,-1,-1,-1,-1],"split_conditions":[1E0,5E0,1.9E1,4E0,4E0,1E0,6E0,-2.4778973E-1,-8.903006E-2,1.170088E-1,-1.2955859E-2,2.2432096E-1,4.4784075E-1,6.787747E-2,-9.923462E-2],"split_indices":[2,6,4,5,4,1,5,0,0,0,0,0,0,0,0],"split_type":[0,0,0,0,0,0,0,0,0,0,0,0,0,0,0],"sum_hessian":[3.364E3,3.193E3,1.71E2,6.7E2,2.523E3,1.61E2,1E1,1.14E2,5.56E2,5.58E2,1.965E3,1.51E2,1E1,6E0,4E0],"tree_param":{"num_deleted":"0","num_feature":"10","num_nodes":"15","size_leaf_vector":"1"}},{"base_weights":[4.9380707E-3,-2.3330282E-1,4.5399942E0,-5.745831E-1,2.959362E0,4.229055E0,3.7148193E-1,-6.1948206E-2,5.6067765E-2,-1.8716406E-2,1.7498371E-1,1.9630341E-1,3.7436134E-1],"categories":[],"categories_nodes":[],"categories_segments":[],"categories_sizes":[],"default_left":[0,0,0,0,0,0,0,0,0,0,0,0,0],"id":71,"left_children":[1,3,5,7,9,11,-1,-1,-1,-1,-1,-1,-1],"loss_changes":[3.6367258E3,3.4862207E3,1.1952832E2,3.2576946E3,5.5789087E2,1.22630615E2,0E0,0E0,0E0,0E0,0E0,0E0,0E0],"parents":[2147483647,0,0,1,1,2,2,3,3,4,4,5,5],"right_children":[2,4,6,8,10,12,-1,-1,-1,-1,-1,-1,-1],"split_conditions":[1E0,1E0,1E0,1.2E1,4E0,1E0,3.7148193E-1,-6.1948206E-2,5.6067765E-2,-1.8716406E-2,1.7498371E-1,1.9630341E-1,3.7436134E-1],"split_indices":[8,1,1,5,5,2,0,0,0,0,0,0,0],"split_type":[0,0,0,0,0,0,0,0,0,0,0,0,0],"sum_hessian":[3.364E3,3.197E3,1.67E2,2.889E3,3.08E2,1.53E2,1.4E1,2.076E3,8.13E2,4.3E1,2.65E2,1.42E2,1.1E1],"tree_param":{"num_deleted":"0","num_feature":"10","num_nodes":"13","size_leaf_vector":"1"}},{"base_weights":[5.0148848E-3,-6.3277525E-1,1.6128279E0,8.614668E-1,-1.3388904E0,2.5036626E0,2.559213E-1,2.266466E-2,1.7288993E-1,-8.381387E-2,1.02084994E-1,1.0568984E-1,3.1995797E-1,-8.002665E-2,6.3683346E-2],"categories":[],"categories_nodes":[],"categories_segments":[],"categories_sizes":[],"default_left":[0,0,0,0,0,0,0,0,0,0,0,0,0,0,0],"id":72,"left_children":[1,3,5,7,9,11,13,-1,-1,-1,-1,-1,-1,-1,-1],"loss_changes":[3.4516506E3,2.5439614E3,1.1549524E3,8.186824E2,1.8705305E3,8.627761E2,7.200098E2,0E0,0E0,0E0,0E0,0E0,0E0,0E0,0E0],"parents":[2147483647,0,0,1,1,2,2,3,3,4,4,5,5,6,6],"right_children":[2,4,6,8,10,12,14,-1,-1,-1,-1,-1,-1,-1,-1],"split_conditions":[1.2E1,5E0,1.2E1,1.4E1,1E0,1E0,7E0,2.266466E-2,1.7288993E-1,-8.381387E-2,1.02084994E-1,1.0568984E-1,3.1995797E-1,-8.002665E-2,6.3683346E-2],"split_indices":[6,3,4,5,1,1,5,0,0,0,0,0,0,0,0],"split_type":[0,0,0,0,0,0,0,0,0,0,0,0,0,0,0],"sum_hessian":[3.364E3,2.409E3,9.55E2,7.73E2,1.636E3,5.76E2,3.79E2,6.69E2,1.04E2,1.488E3,1.48E2,5.25E2,5.1E1,1.34E2,2.45E2],"tree_param":{"num_deleted":"0","num_feature":"10","num_nodes":"15","size_leaf_vector":"1"}},{"base_weights":[4.949202E-3,-2.2674482E-1,4.3074245E0,-1.4038197E0,6.468787E-1,4.5774183E0,-6.0433127E-2,4.7077466E-2,-1.0088309E-1,5.841872E-2,-7.02898E-2,2.1395032E-1,4.1423985E-1,6.572582E-2,-9.866379E-2],"categories":[],"categories_nodes":[],"categories_segments":[],"categories_sizes":[],"default_left":[0,0,0,0,0,0,0,0,0,0,0,0,0,0,0],"id":73,"left_children":[1,3,5,7,9,11,13,-1,-1,-1,-1,-1,-1,-1,-1],"loss_changes":[3.3554028E3,3.285363E3,2.0311572E2,1.9613125E3,1.9648677E3,1.4377393E2,3.1524584E1,0E0,0E0,0E0,0E0,0E0,0E0,0E0,0E0],"parents":[2147483647,0,0,1,1,2,2,3,3,4,4,5,5,6,6],"right_children":[2,4,6,8,10,12,14,-1,-1,-1,-1,-1,-1,-1,-1],"split_conditions":[1E0,8E0,1.9E1,4E0,1.6E1,1E0,8E0,4.7077466E-2,-1.0088309E-1,5.841872E-2,-7.02898E-2,2.1395032E-1,4.1423985E-1,6.572582E-2,-9.866379E-2],"split_indices":[2,6,4,4,4,1,3,0,0,0,0,0,0,0,0],"split_type":[0,0,0,0,0,0,0,0,0,0,0,0,0,0,0],"sum_hessian":[3.364E3,3.193E3,1.71E2,1.36E3,1.833E3,1.61E2,1E1,2.82E2,1.078E3,1.462E3,3.71E2,1.51E2,1E1,6E0,4E0],"tree_param":{"num_deleted":"0","num_feature":"10","num_nodes":"15","size_leaf_vector":"1"}},{"base_weights":[4.8593823E-3,-2.2089659E-1,4.3022566E0,2.953565E-1,-2.1692297E0,6.1532253E-1,4.4827576E0,-8.2727894E-2,4.2793434E-2,1.2290706E-1,-1.2812828E-1,1.3626032E-1,-4.4691022E-2,2.0173466E-1,3.0424315E-1],"categories":[],"categories_nodes":[],"categories_segments":[],"categories_sizes":[],"default_left":[0,0,0,0,0,0,0,0,0,0,0,0,0,0,0],"id":74,"left_children":[1,3,5,7,9,11,13,-1,-1,-1,-1,-1,-1,-1,-1],"loss_changes":[3.2655493E3,3.217295E3,1.0904492E2,2.7654878E3,1.2257727E3,3.1092892E1,9.030493E1,0E0,0E0,0E0,0E0,0E0,0E0,0E0,0E0],"parents":[2147483647,0,0,1,1,2,2,3,3,4,4,5,5,6,6],"right_children":[2,4,6,8,10,12,14,-1,-1,-1,-1,-1,-1,-1,-1],"split_conditions":[1E0,1.2E1,3E0,5E0,2E0,5E0,1.5E0,-8.2727894E-2,4.2793434E-2,1.2290706E-1,-1.2812828E-1,1.3626032E-1,-4.4691022E-2,2.0173466E-1,3.0424315E-1],"split_indices":[8,3,6,5,4,5,0,0,0,0,0,0,0,0,0],"split_type":[0,0,0,0,0,0,0,0,0,0,0,0,0,0,0],"sum_hessian":[3.364E3,3.197E3,1.67E2,2.528E3,6.69E2,8E0,1.59E2,5.64E2,1.964E3,5.2E1,6.17E2,3E0,5E0,1.27E2,3.2E1],"tree_param":{"num_deleted":"0","num_feature":"10","num_nodes":"15","size_leaf_vector":"1"}},{"base_weights":[4.780776E-3,1.6250719E0,-5.6437194E-1,2.0907378E0,-9.655935E-1,-2.4061286E0,-6.0588524E-2,8.122205E-2,2.5170112E-1,9.73904E-2,-9.49349E-2,-1.7224357E-1,-2.1928467E-2,3.7505325E-2,-7.302951E-2],"categories":[],"categories_nodes":[],"categories_segments":[],"categories_sizes":[],"default_left":[0,0,0,0,0,0,0,0,0,0,0,0,0,0,0],"id":75,"left_children":[1,3,5,7,9,11,13,-1,-1,-1,-1,-1,-1,-1,-1],"loss_changes":[3.104097E3,1.0576052E3,2.3111199E3,1.010176E3,3.6797833E2,1.0919155E3,2.2222402E3,0E0,0E0,0E0,0E0,0E0,0E0,0E0,0E0],"parents":[2147483647,0,0,1,1,2,2,3,3,4,4,5,5,6,6],"right_children":[2,4,6,8,10,12,14,-1,-1,-1,-1,-1,-1,-1,-1],"split_conditions":[4E0,1.7E1,5E0,1.4E1,1E0,1.1E1,1.3E1,8.122205E-2,2.5170112E-1,9.73904E-2,-9.49349E-2,-1.7224357E-1,-2.1928467E-2,3.7505325E-2,-7.302951E-2],"split_indices":[3,4,5,6,3,6,4,0,0,0,0,0,0,0,0],"split_type":[0,0,0,0,0,0,0,0,0,0,0,0,0,0,0],"sum_hessian":[3.364E3,8.74E2,2.49E3,7.41E2,1.33E2,5.34E2,1.956E3,6.41E2,1E2,3.2E1,1.01E2,3.49E2,1.85E2,1.239E3,7.17E2],"tree_param":{"num_deleted":"0","num_feature":"10","num_nodes":"15","size_leaf_vector":"1"}},{"base_weights":[4.572663E-3,-2.154326E-1,4.0899925E0,-5.328139E-1,2.728436E0,5.9715805E0,3.4555142E0,6.834552E-2,-5.252285E-2,1.1118548E-1,2.870334E-1,1.7176874E-1,3.6266738E-1,1.9573994E-1,-4.5134425E-3],"categories":[],"categories_nodes":[],"categories_segments":[],"categories_sizes":[],"default_left":[0,0,0,0,0,0,0,0,0,0,0,0,0,0,0],"id":76,"left_children":[1,3,5,7,9,11,13,-1,-1,-1,-1,-1,-1,-1,-1],"loss_changes":[3.0253896E3,2.9857002E3,1.8470361E2,2.837501E3,4.6006396E2,1.116167E2,2.1368982E2,0E0,0E0,0E0,0E0,0E0,0E0,0E0,0E0],"parents":[2147483647,0,0,1,1,2,2,3,3,4,4,5,5,6,6],"right_children":[2,4,6,8,10,12,14,-1,-1,-1,-1,-1,-1,-1,-1],"split_conditions":[1E0,1E0,6E0,4E0,1.4E1,5E0,1E0,6.834552E-2,-5.252285E-2,1.1118548E-1,2.870334E-1,1.7176874E-1,3.6266738E-1,1.9573994E-1,-4.5134425E-3],"split_indices":[2,1,4,4,6,5,9,0,0,0,0,0,0,0,0],"split_type":[0,0,0,0,0,0,0,0,0,0,0,0,0,0,0],"sum_hessian":[3.364E3,3.193E3,1.71E2,2.883E3,3.1E2,4.1E1,1.3E2,6.17E2,2.266E3,2.67E2,4.3E1,1.5E1,2.6E1,1.15E2,1.5E1],"tree_param":{"num_deleted":"0","num_feature":"10","num_nodes":"15","size_leaf_vector":"1"}},{"base_weights":[4.68401E-3,-2.323952E0,3.8447374E-1,1.7566452E0,-2.7162051E0,-5.2861106E-1,1.3405516E0,2.4416367E-2,4.6425825E-1,-1.0231223E-1,-2.5163868E-1,-7.6134102E-3,-1.8283716E-1,1.5961125E-1,4.4128504E-2],"categories":[],"categories_nodes":[],"categories_segments":[],"categories_sizes":[],"default_left":[0,0,0,0,0,0,0,0,0,0,0,0,0,0,0],"id":77,"left_children":[1,3,5,7,9,11,13,-1,-1,-1,-1,-1,-1,-1,-1],"loss_changes":[2.976873E3,7.602676E2,2.5271135E3,3.965052E2,6.586177E2,1.7429506E3,1.1963005E3,0E0,0E0,0E0,0E0,0E0,0E0,0E0,0E0],"parents":[2147483647,0,0,1,1,2,2,3,3,4,4,5,5,6,6],"right_children":[2,4,6,8,10,12,14,-1,-1,-1,-1,-1,-1,-1,-1],"split_conditions":[4E0,2E0,9E0,1.5E1,1.2E1,1.8E1,3E0,2.4416367E-2,4.6425825E-1,-1.0231223E-1,-2.5163868E-1,-7.6134102E-3,-1.8283716E-1,1.5961125E-1,4.4128504E-2],"split_indices":[6,4,5,5,3,4,3,0,0,0,0,0,0,0,0],"split_type":[0,0,0,0,0,0,0,0,0,0,0,0,0,0,0],"sum_hessian":[3.364E3,4.71E2,2.893E3,4.1E1,4.3E2,1.48E3,1.413E3,3.6E1,5E0,3.35E2,9.5E1,1.322E3,1.58E2,2.79E2,1.134E3],"tree_param":{"num_deleted":"0","num_feature":"10","num_nodes":"15","size_leaf_vector":"1"}},{"base_weights":[4.494361E-3,-2.0882222E-1,4.065101E0,-6.8652326E-1,1.6362342E0,3.7870677E0,6.6485715E0,-1.4879452E-2,-1.5848182E-1,3.2277465E-1,6.816506E-2,1.0802703E-1,2.1149562E-1,2.3577757E-1,4.0920433E-1],"categories":[],"categories_nodes":[],"categories_segments":[],"categories_sizes":[],"default_left":[0,0,0,0,0,0,0,0,0,0,0,0,0,0,0],"id":78,"left_children":[1,3,5,7,9,11,13,-1,-1,-1,-1,-1,-1,-1,-1],"loss_changes":[2.9155945E3,2.8197932E3,9.549414E1,2.4530723E3,8.566902E2,1.0178711E2,5.930237E0,0E0,0E0,0E0,0E0,0E0,0E0,0E0,0E0],"parents":[2147483647,0,0,1,1,2,2,3,3,4,4,5,5,6,6],"right_children":[2,4,6,8,10,12,14,-1,-1,-1,-1,-1,-1,-1,-1],"split_conditions":[1E0,1.3E1,1E0,1.3E1,1E0,5E0,8E0,-1.4879452E-2,-1.5848182E-1,3.2277465E-1,6.816506E-2,1.0802703E-1,2.1149562E-1,2.3577757E-1,4.0920433E-1],"split_indices":[8,6,1,3,3,5,6,0,0,0,0,0,0,0,0],"split_type":[0,0,0,0,0,0,0,0,0,0,0,0,0,0,0],"sum_hessian":[3.364E3,3.197E3,1.67E2,2.54E3,6.57E2,1.53E2,1.4E1,2.197E3,3.43E2,3.4E1,6.23E2,3.4E1,1.19E2,8E0,6E0],"tree_param":{"num_deleted":"0","num_feature":"10","num_nodes":"15","size_leaf_vector":"1"}},{"base_weights":[4.62199E-3,-2.8925815E-1,2.773268E0,-5.576638E-1,3.0114021E0,3.1129646E0,-6.4820266E-1,6.3411146E-3,-9.433576E-2,1.1854758E-1,3.30742E-1,2.4797743E-2,1.7919633E-1,-2.5824136E-1,1.2265491E-2],"categories":[],"categories_nodes":[],"categories_segments":[],"categories_sizes":[],"default_left":[0,0,0,0,0,0,0,0,0,0,0,0,0,0,0],"id":79,"left_children":[1,3,5,7,9,11,13,-1,-1,-1,-1,-1,-1,-1,-1],"loss_changes":[2.7387349E3,2.6975215E3,3.7742847E2,2.5610928E3,5.128081E2,3.6058105E2,1.2233679E2,0E0,0E0,0E0,0E0,0E0,0E0,0E0,0E0],"parents":[2147483647,0,0,1,1,2,2,3,3,4,4,5,5,6,6],"right_children":[2,4,6,8,10,12,14,-1,-1,-1,-1,-1,-1,-1,-1],"split_conditions":[1E0,1.5E1,1.4E1,1E1,1.4E1,4E0,6E0,6.3411146E-3,-9.433576E-2,1.1854758E-1,3.30742E-1,2.4797743E-2,1.7919633E-1,-2.5824136E-1,1.2265491E-2],"split_indices":[1,5,3,3,6,5,5,0,0,0,0,0,0,0,0],"split_type":[0,0,0,0,0,0,0,0,0,0,0,0,0,0,0],"sum_hessian":[3.364E3,3.042E3,3.22E2,2.814E3,2.28E2,2.93E2,2.9E1,1.858E3,9.56E2,1.95E2,3.3E1,4.5E1,2.48E2,4E0,2.5E1],"tree_param":{"num_deleted":"0","num_feature":"10","num_nodes":"15","size_leaf_vector":"1"}},{"base_weights":[4.486752E-3,-2.0444341E-1,3.8842452E0,-1.6341773E0,3.7470758E-1,5.464269E0,3.2103798E0,-1.2756859E-1,2.7833444E-3,4.241201E-2,-7.031409E-2,2.2535677E-1,3.9208582E-1,-5.815739E-2,1.7623697E-1],"categories":[],"categories_nodes":[],"categories_segments":[],"categories_sizes":[],"default_left":[0,0,0,0,0,0,0,0,0,0,0,0,0,0,0],"id":80,"left_children":[1,3,5,7,9,11,13,-1,-1,-1,-1,-1,-1,-1,-1],"loss_changes":[2.7284583E3,2.6453457E3,1.6559033E2,1.4276145E3,1.9189858E3,7.8433105E1,1.7320776E2,0E0,0E0,0E0,0E0,0E0,0E0,0E0,0E0],"parents":[2147483647,0,0,1,1,2,2,3,3,4,4,5,5,6,6],"right_children":[2,4,6,8,10,12,14,-1,-1,-1,-1,-1,-1,-1,-1],"split_conditions":[1E0,6E0,7E0,1.1E1,1.2E1,1.2E1,3E0,-1.2756859E-1,2.7833444E-3,4.241201E-2,-7.031409E-2,2.2535677E-1,3.9208582E-1,-5.815739E-2,1.7623697E-1],"split_indices":[2,5,4,6,3,6,5,0,0,0,0,0,0,0,0],"split_type":[0,0,0,0,0,0,0,0,0,0,0,0,0,0,0],"sum_hessian":[3.364E3,3.193E3,1.71E2,9.2E2,2.273E3,4.9E1,1.22E2,5.96E2,3.24E2,1.796E3,4.77E2,3.7E1,1.2E1,8E0,1.14E2],"tree_param":{"num_deleted":"0","num_feature":"10","num_nodes":"15","size_leaf_vector":"1"}},{"base_weights":[4.4352016E-3,3.9041775E-1,-2.0471466E0,1.8656918E0,-1.3302569E-1,-2.339617E0,2.3141017E0,7.258754E-2,2.2392042E-1,-2.994577E-2,8.560402E-2,-2.1078289E-1,-7.9916775E-2,2.0020677E-2,3.1395242E-1],"categories":[],"categories_nodes":[],"categories_segments":[],"categories_sizes":[],"default_left":[0,0,0,0,0,0,0,0,0,0,0,0,0,0,0],"id":81,"left_children":[1,3,5,7,9,11,13,-1,-1,-1,-1,-1,-1,-1,-1],"loss_changes":[2.6654578E3,2.1879546E3,6.852754E2,7.95979E2,1.7993419E3,6.885991E2,2.5546661E2,0E0,0E0,0E0,0E0,0E0,0E0,0E0,0E0],"parents":[2147483647,0,0,1,1,2,2,3,3,4,4,5,5,6,6],"right_children":[2,4,6,8,10,12,14,-1,-1,-1,-1,-1,-1,-1,-1],"split_conditions":[1.7E1,4E0,1E0,1.4E1,1.5E0,6E0,1.2E1,7.258754E-2,2.2392042E-1,-2.994577E-2,8.560402E-2,-2.1078289E-1,-7.9916775E-2,2.0020677E-2,3.1395242E-1],"split_indices":[4,3,8,6,0,5,6,0,0,0,0,0,0,0,0],"split_type":[0,0,0,0,0,0,0,0,0,0,0,0,0,0,0],"sum_hessian":[3.364E3,2.832E3,5.32E2,7.41E2,2.091E3,4.99E2,3.3E1,6.41E2,1E2,1.67E3,4.21E2,1.4E2,3.59E2,2.3E1,1E1],"tree_param":{"num_deleted":"0","num_feature":"10","num_nodes":"15","size_leaf_vector":"1"}},{"base_weights":[4.3309545E-3,-1.960224E-1,3.8181744E0,-2.379804E0,1.6337521E-1,4.1953616E0,2.2082205E0,-1.3028774E-1,1.7775778E-1,2.3457311E-2,-1.229577E-1,1.529766E-1,2.3934296E-1,1.9061407E-2,2.996819E-1],"categories":[],"categories_nodes":[],"categories_segments":[],"categories_sizes":[],"default_left":[0,0,0,0,0,0,0,0,0,0,0,0,0,0,0],"id":82,"left_children":[1,3,5,7,9,11,13,-1,-1,-1,-1,-1,-1,-1,-1],"loss_changes":[2.572E3,2.510326E3,9.2754395E1,6.153994E2,2.2039548E3,7.6052734E1,2.3285663E2,0E0,0E0,0E0,0E0,0E0,0E0,0E0,0E0],"parents":[2147483647,0,0,1,1,2,2,3,3,4,4,5,5,6,6],"right_children":[2,4,6,8,10,12,14,-1,-1,-1,-1,-1,-1,-1,-1],"split_conditions":[1E0,4E0,1.7E1,1E0,1.8E1,7E0,1.2E1,-1.3028774E-1,1.7775778E-1,2.3457311E-2,-1.229577E-1,1.529766E-1,2.3934296E-1,1.9061407E-2,2.996819E-1],"split_indices":[8,6,4,2,4,5,6,0,0,0,0,0,0,0,0],"split_type":[0,0,0,0,0,0,0,0,0,0,0,0,0,0,0],"sum_hessian":[3.364E3,3.197E3,1.67E2,4.51E2,2.746E3,1.34E2,3.3E1,4.35E2,1.6E1,2.46E3,2.86E2,4.8E1,8.6E1,2.3E1,1E1],"tree_param":{"num_deleted":"0","num_feature":"10","num_nodes":"15","size_leaf_vector":"1"}},{"base_weights":[4.3107443E-3,-2.7574134E-1,2.6426828E0,-7.255165E-1,1.4655095E0,2.221302E0,5.1965175E0,-5.9776433E-2,5.8781374E-2,9.572815E-2,-6.3020736E-2,-2.0729978E-2,1.3320959E-1,3.5033715E-1,1.4927603E-1],"categories":[],"categories_nodes":[],"categories_segments":[],"categories_sizes":[],"default_left":[0,0,0,0,0,0,0,0,0,0,0,0,0,0,0],"id":83,"left_children":[1,3,5,7,9,11,13,-1,-1,-1,-1,-1,-1,-1,-1],"loss_changes":[2.4870654E3,2.3842537E3,3.3604907E2,2.162929E3,7.674669E2,3.268131E2,1.5918933E2,0E0,0E0,0E0,0E0,0E0,0E0,0E0,0E0],"parents":[2147483647,0,0,1,1,2,2,3,3,4,4,5,5,6,6],"right_children":[2,4,6,8,10,12,14,-1,-1,-1,-1,-1,-1,-1,-1],"split_conditions":[1E0,1.3E1,1.4E1,1.5E0,1.3E1,4E0,1.1E1,-5.9776433E-2,5.8781374E-2,9.572815E-2,-6.3020736E-2,-2.0729978E-2,1.3320959E-1,3.5033715E-1,1.4927603E-1],"split_indices":[1,5,6,0,3,5,4,0,0,0,0,0,0,0,0],"split_type":[0,0,0,0,0,0,0,0,0,0,0,0,0,0,0],"sum_hessian":[3.364E3,3.042E3,3.22E2,2.418E3,6.24E2,2.78E2,4.4E1,1.939E3,4.79E2,5.36E2,8.8E1,4E1,2.38E2,2.3E1,2.1E1],"tree_param":{"num_deleted":"0","num_feature":"10","num_nodes":"15","size_leaf_vector":"1"}},{"base_weights":[4.2863805E-3,-1.9187199E-1,3.6468768E0,-1.1870925E0,5.4677963E-1,5.3375764E0,3.0769815E0,4.0149353E-2,-8.539751E-2,-5.4802217E-2,5.0216433E-2,1.5258051E-1,3.2472676E-1,1.7525004E-1,-1.092335E-2],"categories":[],"categories_nodes":[],"categories_segments":[],"categories_sizes":[],"default_left":[0,0,0,0,0,0,0,0,0,0,0,0,0,0,0],"id":84,"left_children":[1,3,5,7,9,11,13,-1,-1,-1,-1,-1,-1,-1,-1],"loss_changes":[2.405075E3,2.3486267E3,1.49302E2,1.4121135E3,1.3796678E3,9.1261475E1,1.8554321E2,0E0,0E0,0E0,0E0,0E0,0E0,0E0,0E0],"parents":[2147483647,0,0,1,1,2,2,3,3,4,4,5,5,6,6],"right_children":[2,4,6,8,10,12,14,-1,-1,-1,-1,-1,-1,-1,-1],"split_conditions":[1E0,8E0,6E0,4E0,5E0,5E0,1E0,4.0149353E-2,-8.539751E-2,-5.4802217E-2,5.0216433E-2,1.5258051E-1,3.2472676E-1,1.7525004E-1,-1.092335E-2],"split_indices":[2,6,4,4,5,5,9,0,0,0,0,0,0,0,0],"split_type":[0,0,0,0,0,0,0,0,0,0,0,0,0,0,0],"sum_hessian":[3.364E3,3.193E3,1.71E2,1.36E3,1.833E3,4.1E1,1.3E2,2.82E2,1.078E3,3.99E2,1.434E3,1.5E1,2.6E1,1.15E2,1.5E1],"tree_param":{"num_deleted":"0","num_feature":"10","num_nodes":"15","size_leaf_vector":"1"}},{"base_weights":[4.247258E-3,-1.8554947E-1,3.6171381E0,1.7497367E-1,-2.131282E0,5.1603355E0,3.216089E0,-4.599275E-3,1.389495E-1,-6.991767E-2,-1.9080047E-1,2.0507693E-1,5.9056157E-1,2.3998351E-1,1.3310647E-1],"categories":[],"categories_nodes":[],"categories_segments":[],"categories_sizes":[],"default_left":[0,0,0,0,0,0,0,0,0,0,0,0,0,0,0],"id":85,"left_children":[1,3,5,7,9,11,13,-1,-1,-1,-1,-1,-1,-1,-1],"loss_changes":[2.3081016E3,2.2437112E3,8.737866E1,1.8765085E3,6.1205664E2,1.8394019E2,1.06527466E2,0E0,0E0,0E0,0E0,0E0,0E0,0E0,0E0],"parents":[2147483647,0,0,1,1,2,2,3,3,4,4,5,5,6,6],"right_children":[2,4,6,8,10,12,14,-1,-1,-1,-1,-1,-1,-1,-1],"split_conditions":[1E0,1.7E1,3E0,1E0,1.1E1,1.4E1,3E0,-4.599275E-3,1.389495E-1,-6.991767E-2,-1.9080047E-1,2.0507693E-1,5.9056157E-1,2.3998351E-1,1.3310647E-1],"split_indices":[8,4,4,1,3,5,3,0,0,0,0,0,0,0,0],"split_type":[0,0,0,0,0,0,0,0,0,0,0,0,0,0,0],"sum_hessian":[3.364E3,3.197E3,1.67E2,2.698E3,4.99E2,3.2E1,1.35E2,2.448E3,2.5E2,3.49E2,1.5E2,2.9E1,3E0,3.3E1,1.02E2],"tree_param":{"num_deleted":"0","num_feature":"10","num_nodes":"15","size_leaf_vector":"1"}},{"base_weights":[4.345283E-3,-4.107193E-1,1.5851423E0,-6.0110146E-1,3.4319139E0,3.1936097E0,1.0591658E0,-1.3025749E-2,-1.3877718E-1,1.45799E-1,3.1827593E-1,1.0573875E-1,2.6388082E-1,2.812386E-1,4.2026106E-2],"categories":[],"categories_nodes":[],"categories_segments":[],"categories_sizes":[],"default_left":[0,0,0,0,0,0,0,0,0,0,0,0,0,0,0],"id":86,"left_children":[1,3,5,7,9,11,13,-1,-1,-1,-1,-1,-1,-1,-1],"loss_changes":[2.208538E3,1.9524253E3,5.888285E2,1.8811049E3,1.7214514E2,3.7554675E2,5.233418E2,0E0,0E0,0E0,0E0,0E0,0E0,0E0,0E0],"parents":[2147483647,0,0,1,1,2,2,3,3,4,4,5,5,6,6],"right_children":[2,4,6,8,10,12,14,-1,-1,-1,-1,-1,-1,-1,-1],"split_conditions":[1.3E1,1E0,5E0,1.3E1,1.2E1,1.5E1,1E0,-1.3025749E-2,-1.3877718E-1,1.45799E-1,3.1827593E-1,1.0573875E-1,2.6388082E-1,2.812386E-1,4.2026106E-2],"split_indices":[6,8,4,3,6,6,3,0,0,0,0,0,0,0,0],"split_type":[0,0,0,0,0,0,0,0,0,0,0,0,0,0,0],"sum_hessian":[3.364E3,2.665E3,6.99E2,2.54E3,1.25E2,1.71E2,5.28E2,2.197E3,3.43E2,1.08E2,1.7E1,1.14E2,5.7E1,2.3E1,5.05E2],"tree_param":{"num_deleted":"0","num_feature":"10","num_nodes":"15","size_leaf_vector":"1"}},{"base_weights":[4.427725E-3,-1.8170919E-1,3.4609213E0,-1.740052E0,2.5397563E-1,5.346359E0,2.9917758E0,-1.01245E-1,1.2699215E-1,3.813867E-2,-6.055937E-2,4.0541083E-1,1.98641E-1,1.215027E-1,2.6806232E-1],"categories":[],"categories_nodes":[],"categories_segments":[],"categories_sizes":[],"default_left":[0,0,0,0,0,0,0,0,0,0,0,0,0,0,0],"id":87,"left_children":[1,3,5,7,9,11,13,-1,-1,-1,-1,-1,-1,-1,-1],"loss_changes":[2.1656062E3,2.1689968E3,1.3614648E2,8.5608765E2,1.8623663E3,9.2973694E1,1.7330957E2,0E0,0E0,0E0,0E0,0E0,0E0,0E0,0E0],"parents":[2147483647,0,0,1,1,2,2,3,3,4,4,5,5,6,6],"right_children":[2,4,6,8,10,12,14,-1,-1,-1,-1,-1,-1,-1,-1],"split_conditions":[1E0,5E0,5E0,1.5E1,1.5E1,4E0,1.3E1,-1.01245E-1,1.2699215E-1,3.813867E-2,-6.055937E-2,4.0541083E-1,1.98641E-1,1.215027E-1,2.6806232E-1],"split_indices":[2,5,4,6,4,3,6,0,0,0,0,0,0,0,0],"split_type":[0,0,0,0,0,0,0,0,0,0,0,0,0,0,0],"sum_hessian":[3.364E3,3.193E3,1.71E2,6.97E2,2.496E3,3.2E1,1.39E2,6.54E2,4.3E1,1.853E3,6.43E2,9E0,2.3E1,1.14E2,2.5E1],"tree_param":{"num_deleted":"0","num_feature":"10","num_nodes":"15","size_leaf_vector":"1"}},{"base_weights":[4.5022243E-3,-2.5266832E-1,2.4273055E0,-4.9250868E-1,2.6966913E0,2.731145E0,-6.31233E-1,1.0522892E-2,-7.463465E-2,1.0609237E-1,2.9655913E-1,1.1643322E-1,2.5452927E-1,-2.5116646E-1,1.1883955E-2],"categories":[],"categories_nodes":[],"categories_segments":[],"categories_sizes":[],"default_left":[0,0,0,0,0,0,0,0,0,0,0,0,0,0,0],"id":88,"left_children":[1,3,5,7,9,11,13,-1,-1,-1,-1,-1,-1,-1,-1],"loss_changes":[2.097256E3,2.1538716E3,3.018894E2,1.9795294E3,4.1320093E2,2.6733667E2,1.15684296E2,0E0,0E0,0E0,0E0,0E0,0E0,0E0,0E0],"parents":[2147483647,0,0,1,1,2,2,3,3,4,4,5,5,6,6],"right_children":[2,4,6,8,10,12,14,-1,-1,-1,-1,-1,-1,-1,-1],"split_conditions":[1E0,1.5E1,1.4E1,9E0,1.4E1,1.4E1,6E0,1.0522892E-2,-7.463465E-2,1.0609237E-1,2.9655913E-1,1.1643322E-1,2.5452927E-1,-2.5116646E-1,1.1883955E-2],"split_indices":[1,5,3,3,6,6,5,0,0,0,0,0,0,0,0],"split_type":[0,0,0,0,0,0,0,0,0,0,0,0,0,0,0],"sum_hessian":[3.364E3,3.042E3,3.22E2,2.814E3,2.28E2,2.93E2,2.9E1,1.653E3,1.161E3,1.95E2,3.3E1,2.52E2,4.1E1,4E0,2.5E1],"tree_param":{"num_deleted":"0","num_feature":"10","num_nodes":"15","size_leaf_vector":"1"}},{"base_weights":[4.41624E-3,-1.9380037E0,3.2121575E-1,1.6422831E0,-2.2823982E0,-4.3687683E-1,1.1150022E0,2.4022015E-2,4.266633E-1,5.2610245E-2,-1.3225687E-1,-1.0340016E-2,-1.9147645E-1,4.656222E-2,2.2635543E-1],"categories":[],"categories_nodes":[],"categories_segments":[],"categories_sizes":[],"default_left":[0,0,0,0,0,0,0,0,0,0,0,0,0,0,0],"id":89,"left_children":[1,3,5,7,9,11,13,-1,-1,-1,-1,-1,-1,-1,-1],"loss_changes":[2.071301E3,5.85739E2,1.7419907E3,3.321623E2,5.2411694E2,1.1552317E3,8.823638E2,0E0,0E0,0E0,0E0,0E0,0E0,0E0,0E0],